tree
version=v4
num_class=1
num_tree_per_iteration=1
label_index=0
max_feature_idx=395
objective=binary sigmoid:1
feature_names=TransactionDT TransactionAmt ProductCD card1 card2 card3 card4 card5 card6 addr1 addr2 dist1 dist2 P_emaildomain R_emaildomain C1 C2 C3 C4 C5 C6 C7 C8 C9 C10 C11 C12 C13 C14 D1 D2 D3 D4 D5 D6 D7 D8 D9 D10 D11 D12 D13 D14 D15 M1 M2 M3 M4 M5 M6 M7 M8 M9 V1 V2 V3 V4 V5 V6 V7 V8 V9 V10 V11 V12 V13 V14 V15 V16 V17 V18 V19 V20 V21 V22 V23 V24 V25 V26 V27 V28 V29 V30 V31 V32 V33 V34 V35 V36 V37 V38 V39 V40 V41 V42 V43 V44 V45 V46 V47 V48 V49 V50 V51 V52 V53 V54 V55 V56 V57 V58 V59 V60 V61 V62 V63 V64 V65 V66 V67 V68 V69 V70 V71 V72 V73 V74 V75 V76 V77 V78 V79 V80 V81 V82 V83 V84 V85 V86 V87 V88 V89 V90 V91 V92 V93 V94 V95 V96 V97 V98 V99 V100 V101 V102 V103 V104 V105 V106 V107 V108 V109 V110 V111 V112 V113 V114 V115 V116 V117 V118 V119 V120 V121 V122 V123 V124 V125 V126 V127 V128 V129 V130 V131 V132 V133 V134 V135 V136 V137 V138 V139 V140 V141 V142 V143 V144 V145 V146 V147 V148 V149 V150 V151 V152 V153 V154 V155 V156 V157 V158 V159 V160 V161 V162 V163 V164 V165 V166 V167 V168 V169 V170 V171 V172 V173 V174 V175 V176 V177 V178 V179 V180 V181 V182 V183 V184 V185 V186 V187 V188 V189 V190 V191 V192 V193 V194 V195 V196 V197 V198 V199 V200 V201 V202 V203 V204 V205 V206 V207 V208 V209 V210 V211 V212 V213 V214 V215 V216 V217 V218 V219 V220 V221 V222 V223 V224 V225 V226 V227 V228 V229 V230 V231 V232 V233 V234 V235 V236 V237 V238 V239 V240 V241 V242 V243 V244 V245 V246 V247 V248 V249 V250 V251 V252 V253 V254 V255 V256 V257 V258 V259 V260 V261 V262 V263 V264 V265 V266 V267 V268 V269 V270 V271 V272 V273 V274 V275 V276 V277 V278 V279 V280 V281 V282 V283 V284 V285 V286 V287 V288 V289 V290 V291 V292 V293 V294 V295 V296 V297 V298 V299 V300 V301 V302 V303 V304 V305 V306 V307 V308 V309 V310 V311 V312 V313 V314 V315 V316 V317 V318 V319 V320 V321 V322 V323 V324 V325 V326 V327 V328 V329 V330 V331 V332 V333 V334 V335 V336 V337 V338 V339 TransactionAmt_log TransactionAmt_decimal hour day_of_week
feature_infos=[86522:15811088] [0.251:5420] -1:4:0:2:1:3 [1004:18395] [100:600] [100:231] -1:4:2:0:1 [100:237] -1:2:1:4:3 [100:540] [10:102] [0:10286] [0:11623] -1:16:54:31:19:1:2:9:23:36:32:3:25:44:49:59:4:30:55:10:35:8:26:43:29:11:15:28:37:0:51:42:22:24:12:13:33:21:38:50:48:6:34:14:41:5:47:7:45:57:17:58:18:56:40:39:53:20:46:27 -1:31:16:19:1:55:2:36:9:56:23:32:25:26:44:30:50:10:3:4:37:22:21:38:51:60:28:35:29:17:59:8:18:15:57:24:11:13:43:12:0:46:52:20:58:42:47:39:54:27:53:5:7:40:41:48:49:14:33:6:34 [0:4681] [0:5690] [0:26] [0:2249] [0:333] [0:2249] [0:2251] [0:3327] [0:210] [0:3253] [0:3184] [0:3184] [0:2913] [0:1424] [0:640] [0:640] [0:784] [-122:855] [0:757] [-83:866] [0:843] [0:1707.7916259765625] [0:0.95833301544189442] [0:876] [-29:668] [-83:648] [0:815] [-193:867] [-83:876] -1:1:2 -1:1:2:0 -1:2:1:0 -1:3:0:2:1 -1:2:0:1 -1:0:1:2 -1:2:0:1 -1:2:0:1 -1:2:1:0 none [0:8] [0:9] [0:6] [0:6] [0:9] [0:9] [0:8] [0:8] [0:4] [0:4] [0:3] [0:5] [0:1] [0:7] [0:14] [0:14] [0:14] [0:7] [0:14] [0:5] [0:8] [0:12] [0:12] [0:4] [0:13] [0:4] [0:4] [0:4] [0:9] [0:7] [0:14] [0:4] [0:13] [0:3] [0:4] [0:52] [0:52] [0:15] [0:24] [0:1] [0:6] [0:7] [0:46] [0:46] [0:6] [0:12] [0:4] [0:5] [0:4] [0:6] [0:12] [0:5] [0:6] [0:14] [0:51] [0:5] [0:10] [0:16] [0:16] [0:6] [0:10] [0:7] [0:7] [0:1] [0:6] [0:8] [0:2] [0:4] [0:5] [0:5] [0:10] [0:6] [0:8] [0:3] [0:6] [0:30] [0:31] [0:7] [0:19] [0:19] [0:7] [0:7] [0:7] [0:7] [0:30] [0:30] [0:1] [0:2] [0:4] [0:6] [0:7] [0:7] [0:2] [0:877] [0:1410] [0:975] [0:9] [0:86] [0:28] [0:866] [0:1285] [0:927] [0:15] [0:99] [0:54] [0:1] [0:7] [0:7] [0:7] [0:9] [0:9] [0:9] [0:6] [0:6] [0:6] [0:2] [0:2] [0:2] [0:3] [0:3] [0:3] [0:11] [0:11] [0:11] [0:160000] [0:160000] [0:160000] [0:12307.5] [0:30250] [0:12307.5] [0:93418] [0:133915] [0:98420] [0:90750] [0:90750] [0:90750] [0:22] [0:31] [0:31] [0:5] [0:9] [0:866] [0:62] [0:297] [0:24] [0:26] [0:20] [0:20] [1:3388] [1:57] [1:69] [0:18] [0:18] [0:24] [0:24] [0:24] [0:24] [0:43986.9296875] [0:641411.4375] [0:3000] [0:3000] [0:3000] [0:93418] [0:98420] [0:101640] [0:869] [0:963] [0:18] [0:46] [0:61] [0:31] [0:6] [0:8] [0:13] [0:48] [0:858] [0:1235] [0:919] [0:83] [0:24] [0:83] [0:40] [0:16] [0:31] [0:38] [0:218] [0:30] [0:30] [0:40] [0:21] [0:44] [0:37] [0:6] [0:16] [0:38] [0:14] [0:21] [0:43] [0:43] [0:55] [0:101640] [0:139762] [0:102331] [0:12307.5] [0:12307.5] [0:25525] [0:3100] [0:8050] [0:3100] [0:92570] [0:129006] [0:97572] [0:101640] [0:101640] [0:101640] [0:299] [0:398] [0:376] [0:25] [0:225] [0:225] [0:16] [0:144] [0:51] [0:242] [0:213] [0:52] [1:176] [0:64] [0:291] [0:335] [0:330] [0:120] [0:22] [0:45] [0:39] [0:22] [0:22] [1:6] [0:4] [0:19] [0:57] [0:20] [0:183] [0:43] [0:17] [1:36] [0:22] [0:17] [0:17] [0:23] [1:163] [0:60] [0:72] [0:74] [0:46] [0:65] [0:195] [0:7] [0:49] [0:20] [0:153600] [0:153600] [0:153600] [0:12307.5] [0:27000] [0:12307.5] [0:12307.5] [0:4000] [0:4000] [0:4000] [0:51200] [0:66000] [0:51200] [0:101640] [0:101640] [0:101640] [0:877] [0:974] [0:22] [0:31] [0:68] [0:9] [0:95] [0:8] [0:31] [0:10] [0:12] [1:66] [1:1040] [1:323] [0:866] [0:1286] [0:927] [0:93] [0:12] [0:93] [0:49] [0:11] [0:13] [0:16] [0:20] [0:16] none [0:108800] [0:145724] [0:108800] [0:12307.5] [0:30250] [0:12307.5] [0:12307.5] [0:4817.47021484375] [0:7519.8701171875] [0:4817.47021484375] [0:93418] [0:134021] [0:98420] [0:101640] [0:101640] [0:101640] [0:877] [0:1411] [0:975] [0:9] [0:44] [0:18] [0:15] [0:99] [0:54] [0:160000] [0:160000] [0:160000] [0:12307.5] [0:12307.5] [0:12307.5] [0:52030] [0:52030] [0:52030] [0.22394323148477407:8.5980355792603387] [0:0.99900000000000233] [0:23] [0:6]
tree_sizes=6765 6830 6824 6843 6849 6844 6848 6800 6846 6896 6879 6914 6899 6861 6902 6922 6880 6957 6908 6958 6968 6900 6892 6942 6938 6916 6927 6941 6969 6925 6994 6913 6883 6955 6995 6905 6985 6875 6946 6999 6958 6947 6932 6979 6964 6947 7013 6968 6936 6988 6935 7029 6996 6942 7038 7002 7003 7003 6975 6990 7029 7024 7051 6984 7043 6974 6985 7031 6966 6986 6958 6995 6995 6914 7013 6988 6964 7016 6954 7099 6984 6983 6994 7028 6980 7036 6948 7034 6972 7035 7009 6966 7022 6989 6970 7063 7004 7083 7024 6983 7032 6940 6983 6946 6997 6970 6991 6980 7019 6973 7027 6948 6963 7017 6988 7006 6934 6988 6947 7001 6995 7063 7013 7051 6961 7006 7016 6985 7053 6992 6885 7011 6912 7026 6908 6974 6983 7004 6986 6920 6908 6926 6995 6999 6884 7047 7024 7026 6987 6924 6956 6925 6948 6993 6952 6978 6980 6993 6991 6916 6930 6925 6976 6968 6933 6987 6964 7022 6963 6862 6891 6963 6989 6962 6964 6998 6952 7005 6997 6973 6921 6996 6945 6982 6921 6850 6962 7018 6811 7014 7004 6969 6886 6930 6959 6945 6872 6946 6980 6955 7005 6948 6883 6945 6948 6940 6894 6895 6897 6876 7005 6898 6908 6992 6968 6979 6955 6850 6923 7002 7022 6978 6931 7064 7026 6848 6932 6869 6941 6822 6853 6958 6893 6970 6917 6921 6975 6979 6984 6955 6996 6846 7042 6943 6923 6996 6938 6960 6909 6910 6975 6944 6829 6887 6911 6968 6940 6936 6878 6941 6989 6937 6947 6998 6915 6954 6933 6970 6989 6910 6933 6984 6894 6857 6967 6837 6962 6822 6923 6992 6848 6899 6914 6890 6919 6988 6872 6911 6821 7027 6911 6920 6901 6937 6953 7034 6957 6895 6853 6973 6912 6936 6883 6903 6875 6904 6867 6989 6910 6929 6928 6953 6984 6985 6904 6970 7008 6884 6949 6920 6908 6897 6901 6856 6886 6873 6908 6970 6941 6942 6901 6932 6951 6975 6962 6929 6922 6900 6839 6924 6781 6937 6864 6846 6863 6899 6871 6839 6918 6966 6901 6971 6994 6924 6948 6929 6897 6874 6968 6927 6923 6880 6879 6935 6905 6825 6993 6893 6927 6926 6886 6890 6930 6942 6914 6861 6865 6865 6910 6856 6929 6948 6914 6908 6955 6873 6891 6810 6872 6868 6932 6986 6886 6826 6856 6909 6921 6935 6834 6941 6859 6887 6924 6916 6841 6982 6942 6994 6962 6848 6885 6869 6935 6816 6923 6934 6946 6988 6921 6881 6941 7004 6952 6945 6967 6843 6851 6858 6930 6967 6837 6969 6960 6930 6923 6811 6918 6903 6957 6903 7009 6942 6911 6872 6926 6943 6881 6936 6932 6959 6925 6899 6880 6901 6866 6937 6899 6860 6950 6900 6930 6851 6878 6841 6937 6964 6838 6907 6945 6994 6892 6924 6889 6833 6880 6885 6894 6878 6835 6912 6914 6809 6865 6935 6938 6978 6831 6877 6930 6844 6913 6886 6972 6907 6862 6863 6872 6856 6924 6878

Tree=0
num_leaves=63
num_cat=7
split_feature=14 346 15 28 122 28 335 16 38 15 360 1 28 361 5 364 326 143 47 48 350 7 8 335 3 1 128 32 335 114 43 69 1 32 182 13 154 16 0 48 333 23 31 326 29 7 5 28 15 32 20 19 46 1 5 4 261 43 212 29 142 0
split_gain=695677 401969 242993 135782 130636 81264.6 61808.6 33325.6 31176.7 31242.6 26052.2 25995.7 25008.9 23668.2 19118.9 16744.4 14999.7 14467.2 13704.1 12938.7 11667 10897.9 9995.58 9489.98 8466.76 8431.17 8336.54 8314.17 8173.48 7766.74 7142.49 7070.82 6552.85 8104.98 6388.37 6338.81 6179.02 5976.98 5959.77 5682.35 5619.22 5277.9 5050.88 5027.87 6916.6 4972.83 4963.09 4813.28 8196.58 7011.67 4780.47 5116.46 4601.78 4581.35 4561.39 4488.16 4480.95 4429.59 4392.57 4380.79 4312.03 4306.94
threshold=0 1.0000000180025095e-35 1.5000000000000002 1.0000000180025095e-35 1.0000000180025095e-35 1.0000000180025095e-35 1.5000000000000002 3.5000000000000004 16.500000000000004 2.5000000000000004 311.97500610351568 335.02500000000003 1.0000000180025095e-35 59.010400772094734 184.50000000000003 76.986450195312514 1.0000000180025095e-35 1.0000000180025095e-35 1 2 7.5000000000000009 225.50000000000003 3 2.5000000000000004 14613.500000000002 221.99500000000003 2.5000000000000004 31.500000000000004 1.5000000000000002 1.5000000000000002 84.500000000000014 1.0000000180025095e-35 68.50500000000001 26.500000000000004 27.979999542236332 4 29.500000000000004 1.5000000000000002 2419972.5000000005 5 1.0000000180025095e-35 7.5000000000000009 8.5000000000000018 8.4983000755310076 260.50000000000006 108.00000000000001 184.50000000000003 1.5000000000000002 5.5000000000000009 142.50000000000003 2.5000000000000004 4.5000000000000009 6 184.06100000000004 145.00000000000003 199.50000000000003 3.4553500413894667 3.5000000000000004 290488.15625000006 254.50000000000003 1.0000000180025095e-35 2386228.0000000005
decision_type=9 2 2 2 2 2 2 2 2 2 2 2 2 2 2 2 2 2 1 1 2 2 9 2 2 2 2 2 2 2 2 2 2 2 2 9 2 2 2 1 2 2 2 2 2 2 2 2 2 2 2 2 1 2 2 2 2 2 2 2 2 2
left_child=2 4 3 38 5 31 7 11 9 12 17 18 -4 32 25 -8 59 45 21 20 22 -7 30 36 -23 40 -24 37 35 61 -20 58 -6 -34 -10 55 39 -14 46 -12 -5 -41 -13 44 47 -3 -1 -11 49 -49 52 -52 -47 -17 -39 -16 -54 -15 -2 60 -9 -21
right_child=1 10 8 14 13 6 15 16 34 43 23 42 27 57 28 53 -18 -19 19 29 -22 24 26 -25 -26 -27 -28 -29 -30 -31 -32 -33 33 -35 -36 -37 -38 54 -40 41 -42 -43 -44 -45 -46 50 -48 48 -50 -51 51 -53 56 -55 -56 -57 -58 -59 -60 -61 -62 -63
leaf_value=-2.6546533524513718 -2.4221289950886336 -2.1489812858109323 -1.9951081454243291 -3.0975345227239481 -3.2431978135267134 -2.9591099483336749 -2.7547521151038978 -2.5996358964918587 -2.4578864014990489 -1.9266420136709332 -2.8269100682864958 -2.5206902598521488 -2.8685749304055141 -2.2925014240159287 -2.3816095662189984 -2.4836927289536597 -1.9664253313255708 -2.8874629485322898 -2.5163809743748327 -3.2275051743585861 -1.9882096637949811 -2.8269463934386074 -3.0300361541312464 -2.1372135923403324 -1.9631980525935195 -2.5187307855835361 -1.9201873085993308 -2.8752648963862839 -2.4465313364131558 -2.5205055395737115 -3.0354947438446871 -2.0659086104530551 -3.0396751235903925 -3.2253710744844737 -3.2708147802263392 -2.9788261905587654 -3.3689138528864762 -3.1845941357573455 -2.0945321325744248 -2.3721090652609265 -2.5890198015823813 -2.0339834336685012 -2.9611648356384928 -1.9143838717227175 -2.6379277700289174 -2.6802411976084124 -2.1321075998157832 -2.2504951954705188 -2.0056932800642624 -3.0651173811847237 -2.2918730952795934 -3.2694409449557584 -2.422358765602572 -2.2100836542711653 -2.295871965147084 -2.7337979814438937 -3.2179730139023279 -2.8023968191145112 -3.278672151733844 -2.9101064228996414 -3.0774497985444573 -3.0842450947733515
leaf_weight=96.534379422664642 729.71800272166729 133.38740402460098 479.81212521344423 787.63239541649818 2106.1009152531624 124.50714380294085 529.90483840554953 509.1006957218051 42.383342750370502 807.93835083395243 55.974342413246632 328.40492374449968 57.879349865019321 74.304981134831905 124.31044537574053 383.2233620211482 72.761399313807487 206.22871135175228 218.36914318799973 692.39021763205528 31.960824489593506 45.800258785486221 1355.095436386764 1184.5387510806322 74.556361317634583 77.856956854462624 17.133840747177601 108.94693634659052 237.71396736055613 55.264041252434254 95.127479054033756 152.40000016987324 1323.5635673701763 1056.7687823176384 56.229436047375202 344.84207931905985 14.924095138907431 14.963281244039534 876.50444722920656 571.35834497958422 58.350820943713188 144.62322594225407 81.168394759297371 2422.3498428910971 45.276283599436283 334.40462128818035 85.853438027203083 156.59141770750284 549.29081431031227 31.774882465600967 387.95301257818937 13.863210715353487 562.35433735698462 254.66109818220139 411.24624083936214 332.20571804791689 18.272243514657021 99.802063904702663 15.281337402760981 213.40104649960995 52.044677510857582 2165.3911368325353
leaf_count=1530 8295 814 1505 19207 57272 2704 9421 7529 511 1468 1073 4357 1156 659 1316 4811 188 4194 2879 18619 96 878 31282 6960 188 1030 29 2190 2814 733 2206 686 30800 28374 1559 7555 442 390 4429 5944 851 562 1766 3829 703 5465 496 1262 1835 755 3436 384 6395 1854 3674 5772 488 1866 426 4433 1249 52250
internal_value=-2.62626 -2.81455 -2.2499 -2.60498 -2.94539 -2.82523 -2.88042 -2.94391 -2.04088 -2.02381 -2.34944 -2.99058 -2.26349 -3.15676 -2.85115 -2.54702 -2.6528 -2.49562 -3.02272 -3.04401 -2.93458 -2.65807 -2.95252 -2.22663 -2.29189 -3.01664 -3.01836 -2.48063 -2.70401 -3.1076 -2.69378 -2.37622 -3.17896 -3.12212 -2.92142 -2.78038 -2.36122 -2.39182 -2.14864 -2.34174 -3.06246 -2.30381 -2.60798 -1.95974 -2.0288 -2.43989 -2.40868 -2.01095 -2.1033 -2.38791 -2.46936 -2.3256 -2.53249 -2.37446 -2.32707 -2.65246 -2.4474 -2.58478 -2.4397 -2.71728 -2.64395 -3.11895
internal_weight=24692.6 16486.1 8206.49 3021.8 12858.2 8197.67 7300.27 6132.48 5184.68 5086.07 3627.88 5285.17 1072.85 4660.54 1962.91 1167.79 847.308 1656.46 4875.6 4630.73 1717.69 244.864 1685.73 1971.42 120.357 923.84 1372.23 593.036 1039.07 2913.05 313.497 897.399 4486.43 2380.33 98.6128 801.358 786.88 484.089 1058.89 771.956 845.983 715.982 409.573 4013.22 1590.87 1450.23 182.388 1545.6 737.657 188.366 1316.85 401.816 915.031 637.884 426.21 456.516 580.627 174.107 744.999 774.546 561.145 2857.78
internal_count=377844 312007 65837 45000 275850 156879 147472 131386 20837 18767 36157 117987 8915 118971 38545 16086 13399 21176 111864 108094 36492 3770 36396 14981 1066 21088 31311 7410 17457 71602 5085 9407 116446 59174 2070 14643 8021 5220 6455 7579 20058 6506 6123 9852 6023 16982 2026 5320 3852 2017 16168 3820 12348 6665 4064 7088 6883 2525 8721 13211 8778 70869
cat_boundaries=0 2 3 4 5 7 8 9
cat_threshold=646512640 8388784 4 2 2 536936448 4194320 4 2
is_linear=0
shrinkage=1


Tree=1
num_leaves=63
num_cat=8
split_feature=143 25 8 180 27 364 30 2 14 43 217 154 4 7 13 1 27 17 0 0 31 32 0 9 134 4 32 167 27 16 1 13 0 298 182 15 19 1 13 1 14 135 4 30 39 25 1 105 39 32 27 4 1 106 114 30 365 43 359 13 38 3
split_gain=80701.8 21752.7 18948.1 12725.2 12103.5 14701.4 12080.8 10696 7448.37 6200.7 5429.38 4439.3 4173.02 3848.45 3390.55 3213.43 3187.88 3181.99 3112.78 2985.89 2919.63 2802.47 2748.63 2732.32 2777.98 2613.4 2711.51 2466.48 2835.67 2459.73 2388.8 3684.35 2272.03 2260.64 2255.3 2735.88 2221.18 2217.89 2155.91 2036.26 2791.22 1981.36 1923.66 2191.58 2213.01 1902.15 1888.91 1883.65 1847.32 1700.18 1691.21 1660.79 1726.05 1651.2 1650.85 1926.24 1649.29 1632.82 1594.19 2477.47 2005.65 2257
threshold=1.0000000180025095e-35 1.5000000000000002 0 68.617851257324233 1.0000000180025095e-35 24.009799957275394 199.50000000000003 1 2 141.50000000000003 907.98498535156261 1.0000000180025095e-35 582.50000000000011 223.50000000000003 3 159.01250000000002 35.500000000000007 1.0000000180025095e-35 3605071.0000000005 2419972.5000000005 65.500000000000014 26.500000000000004 2386228.0000000005 225.50000000000003 1.0000000180025095e-35 224.50000000000003 63.500000000000007 1.5000000000000002 34.500000000000007 3.5000000000000004 138.07000000000002 4 3086321.5000000005 1.5000000000000002 493.58500671386724 3.5000000000000004 1.0000000180025095e-35 149.96000000000001 5 59.960000000000008 6 1.0000000180025095e-35 492.50000000000006 4.5000000000000009 5.5000000000000009 128.50000000000003 335.02500000000003 1.0000000180025095e-35 114.50000000000001 568.50000000000011 26.500000000000004 161.50000000000003 225.17500000000004 1.5000000000000002 1.0000000180025095e-35 382.50000000000006 774.50000000000011 115.50000000000001 211.90999603271487 7 86.500000000000014 9501.0000000000018
decision_type=2 2 9 2 2 2 2 1 9 2 2 2 2 2 9 2 2 2 2 2 2 2 2 2 2 2 2 2 2 2 2 9 2 2 2 2 2 2 9 2 9 2 2 2 2 2 2 2 2 2 2 2 2 2 2 2 2 2 2 9 2 2
left_child=1 2 7 12 -4 11 16 8 22 10 17 19 15 -5 25 58 49 30 -15 -6 33 46 -1 -18 47 26 -7 28 34 -26 31 32 -9 39 35 -8 54 -12 50 40 -21 -20 -27 -44 -45 -17 -14 -25 -31 -3 -11 -36 -53 -42 55 -37 -28 -41 -2 60 -60 -62
right_child=3 6 4 13 5 14 27 9 -10 38 37 -13 21 18 -16 45 23 -19 41 20 -22 -23 -24 24 29 42 56 -29 -30 48 -32 -33 -34 -35 51 36 -38 -39 -40 57 53 -43 43 44 -46 -47 -48 -49 -50 -51 -52 52 -54 -55 -56 -57 -58 -59 59 -61 61 -63
leaf_value=0.16997184051071557 0.068690359724071878 0.39458181141721749 0.35344114988316611 0.13591720051620479 0.10221332463990605 0.29262824519053748 0.13769631914644881 0.3198781799569112 0.06138231472316772 0.30298422849022399 0.045341969247770009 0.32818068583264748 0.5699228209028635 0.10306043307655147 0.14826272919036115 0.16815094215941764 0.12614308427180659 -0.052924091228245297 0.51847307912877783 0.24488774611571446 0.030138734946055668 0.026659251073873836 0.36217010962670998 -0.05376428459241131 -0.052694128469649971 0.37697710291413766 -0.027978968578344723 0.44088475152489687 0.075471562000894166 0.33540544834430985 0.44294561237889551 0.059503309300320842 0.40534698275703829 0.38293927465681704 0.87695419590495927 0.22367949827838429 -0.052952268133816975 0.40251705271004345 0.0098625556489274086 0.26351243730645391 0.11425626901908492 0.338016818997664 0.35915269135750638 0.44954234907281898 0.070753057086374194 0.71359693251238232 0.17371744267237477 0.47862964695400723 0.065245888325082033 0.031683202100062126 -0.021997115425027844 -0.05332639578199673 0.51160407129878027 0.44569737786522179 0.33958391350150335 0.92009898837999848 0.64927212337988505 0.15722760352659979 0.060085843873562118 0.085708486666351932 0.66414889724578619 0.13479209760664995
leaf_weight=252.94205153733492 3185.4023102261126 17684.20727301389 3052.9061349220574 262.41874784603715 1041.8373867087066 536.43793841078877 383.15313579514623 950.34153164178133 474.99210941419005 447.77316299453378 154.90708569064736 543.97055758163333 101.91894885897636 106.06126092746854 326.47146600857377 1188.0704950690269 167.33453191071749 38.578144576400518 219.30812529847026 749.55151336267591 250.32807923853397 52.560931939631701 703.08052231743932 17.4136733263731 48.871250331401825 2172.9591168947518 108.47344117239118 114.1149766407907 331.09731678664684 746.36390067636967 2469.8090851679444 104.2205932289362 4277.0196757093072 172.87653163075447 20.767810489982367 14.900025591254233 28.279961563646793 60.413049422204494 107.87424582242966 1412.1696615815163 1413.8357024341822 496.43342449143529 299.75263455882668 49.271506641060114 177.35250936821103 16.201832976192236 42.679338797926903 361.77517154067755 69.137878462672234 32.333955846726894 43.963859084993601 18.078006893396378 53.63609191775322 38.603546980768442 143.21737634390593 29.761530186980963 9.8018765449523908 485.61872639507055 36.760878931730986 333.50009646266699 63.517718087881804 29.482380852103233
leaf_count=3585 76208 39973 9908 4246 20311 4136 6203 7585 7959 4072 3396 3533 1153 1915 3690 23148 1624 829 1453 8876 5251 1325 3254 322 1162 12701 1933 577 5069 2369 7787 1556 16053 538 72 156 581 485 2008 20692 27064 5373 1544 259 2673 136 781 925 848 511 806 343 228 211 885 50 5 8087 780 7381 654 606
internal_value=0.316902 0.341003 0.307645 0.147198 0.266313 0.239413 0.378747 0.359652 0.227199 0.381265 0.393252 0.191852 0.11383 0.302619 0.318352 0.104669 0.388159 0.400055 0.35585 0.178525 0.196103 0.339326 0.308096 0.315826 0.34135 0.333472 0.244849 0.220404 0.195807 0.291853 0.402295 0.383464 0.389064 0.205827 0.2534 0.217937 0.360167 0.145556 0.226586 0.198359 0.165646 0.39331 0.356203 0.270443 0.153108 0.175489 0.45298 0.45418 0.312501 0.393919 0.26847 0.483217 0.369194 0.122224 0.42235 0.687759 0.0281471 0.236316 0.0812942 0.167959 0.346077 0.496335
internal_weight=49326.9 43192.6 22928.1 6134.32 12842.2 9789.31 20264.4 10085.9 1431.01 8654.9 8055.29 6108.79 5050.09 1084.22 3680.52 4852.94 19127.4 7839.97 821.803 5564.82 4522.98 197.159 956.023 1410.9 1243.56 3354.05 654.713 1137.01 1022.89 864.373 7801.39 5331.58 5227.36 4272.66 691.794 599.312 216.159 215.32 599.611 4099.78 2201.99 715.742 2699.34 526.377 226.624 1204.27 144.598 379.189 815.502 17716.5 491.737 92.4819 71.7141 1452.44 187.879 44.6616 118.275 1897.79 3648.66 463.261 129.761 93.0001
internal_count=377844 252685 190787 125159 131412 121504 61898 59375 14798 44577 37691 94563 112172 12987 26941 108913 47734 33810 8741 91030 70719 3259 6839 7250 5626 23251 6074 14164 13587 4379 32981 25194 23638 65468 8518 7875 1672 3881 6886 64930 36151 6826 17177 4476 2932 23284 1934 1247 3217 40484 4878 643 571 27275 1091 206 1938 28779 85629 9421 2040 1260
cat_boundaries=0 1 2 4 6 8 10 12 14
cat_threshold=2 4 1686177024 8388752 2181109509 138416136 2726920710 79691953 2684960792 4194352 537460736 8388624 2147483648 134217728
is_linear=0
shrinkage=0.05


Tree=2
num_leaves=63
num_cat=9
split_feature=121 25 28 360 180 32 30 8 13 392 38 366 392 29 387 9 392 20 387 337 3 364 0 392 14 5 31 13 313 13 43 31 13 27 38 39 9 392 13 32 38 36 43 6 392 43 3 19 392 197 39 3 56 9 47 179 113 3 28 3 9 62
split_gain=39320.6 9981.99 10136.3 10881 8118.44 5656.72 5602.1 3848.96 3110.56 2516.37 2439.61 2430.22 2320.15 2195.96 2153.43 1988.81 2136.44 1944.18 1879.37 1871.32 1845.6 1842.26 1791.51 1631.36 1640.04 1630.7 1503.56 1495.6 1473.49 1469.89 1431.93 1411.66 1405.08 1387.66 1368.43 1366.58 1316.56 1312.61 1299.12 1286.2 1283.2 1256.3 1229.55 1190.88 1261.7 3015.62 1460.83 1822.81 1224.88 1156.26 1154.18 1334.37 1136.24 1156.2 1133.83 1130.07 1126.51 1138.89 1116.23 1108.2 1103.25 1086.35
threshold=1.0000000180025095e-35 1.5000000000000002 1.0000000180025095e-35 35.019149780273445 68.617851257324233 25.500000000000004 212.50000000000003 0 1 5.0752519341309474 55.500000000000007 48.960000991821296 5.356437674917875 349.50000000000006 23.500000000000004 327.50000000000006 4.9123607221230374 3.5000000000000004 39.000000000000007 8.5000000000000018 5032.5000000000009 200.02529907226565 4030121.5000000005 4.1629684762796133 2 149.50000000000003 8.5000000000000018 3 1.5000000000000002 4 1.5000000000000002 1.5000000000000002 5 44.500000000000007 237.50000000000003 196.50000000000003 327.50000000000006 4.9524304420422594 6 26.500000000000004 431.50000000000006 284.64582824707037 332.50000000000006 7 5.746123311955432 13.500000000000002 12254.000000000002 1.5000000000000002 5.421308736577128 132.50000000000003 133.50000000000003 5939.0000000000009 1.0000000180025095e-35 268.50000000000006 8 321.86000061035162 1.0000000180025095e-35 16873.500000000004 3.5000000000000004 6170.5000000000009 325.50000000000006 1.0000000180025095e-35
decision_type=2 2 2 2 2 2 2 9 9 2 2 2 2 2 2 2 2 2 2 2 2 2 2 2 9 2 2 9 2 9 2 2 9 2 2 2 2 2 9 2 2 2 2 9 2 2 2 2 2 2 2 2 2 2 1 2 2 2 2 2 2 2
left_child=1 2 49 5 9 7 10 25 34 26 61 13 17 14 33 16 31 28 22 29 -15 39 -17 24 -9 -4 55 43 56 37 -26 -12 42 -5 41 -13 -22 40 -25 -6 52 -7 -14 44 45 48 47 50 60 -1 -47 -52 58 -54 -27 -2 57 -10 -8 -53 -11 -3
right_child=4 6 3 11 21 8 19 23 12 27 15 35 32 20 -16 18 -18 -19 -20 -21 36 -23 -24 38 30 54 -28 -29 -30 -31 -32 -33 -34 -35 -36 -37 -38 -39 -40 -41 -42 -43 -44 -45 -46 46 -48 -49 -50 -51 51 59 53 -55 -56 -57 -58 -59 -60 -61 -62 -63
leaf_value=0.269814505762414 0.095355041777560254 0.28057754002740609 0.063429717588705636 0.18292045941022733 0.23482229659405263 0.21733083279244722 0.092350459956596589 0.21212249883261239 0.13215500534238664 0.12466950167862093 0.22036786980792122 0.27302140519318296 0.27456996224575508 -0.02233743121985474 0.34222341307557946 0.1266648253668238 0.26306153821063444 0.34471219901868444 -0.052196954312077104 -0.054468637673389421 0.33706328336442459 0.30441494251695866 0.30850464530754029 0.22589071620242593 0.080731262103326318 0.028003911194306671 0.042226111973586139 -0.0065585191910852592 0.28138905075367193 -0.032190516675071466 0.19579397280569577 0.11325386058215869 0.049277638955263305 -0.054004379774328565 0.062716144800503568 0.15217165843848329 0.08768497243401685 0.28743507099999643 0.051058279855706171 0.1119224101871109 3.9893130036200272e-05 -0.053508276606808271 0.063190350712414523 0.086909098406733248 0.12956439579411136 0.19121418236700416 0.006744348847179487 0.044161249291153754 0.49207378054818957 -0.015774159048625468 0.045597580764182993 0.92942116257090213 0.010606088165311139 0.19304688797640498 0.26955101067629073 0.27954943827659345 0.06529732006885218 0.43203211156909571 0.41407197007263402 0.44395399138636527 0.45314164216753716 0.083069661124189606
leaf_weight=9521.460605442524 1931.1803263127804 21873.59391310811 105.43643537908792 2173.1291741915047 524.3743481375277 1437.3640956059098 37.825966909527779 600.49695764109492 222.59370568022132 61.944457199424505 567.01554821431637 5346.2577034384012 405.97747395932674 43.569247703999281 213.95020850002766 151.19004194065928 912.84700573608279 72.383440554141998 41.369406271725893 89.359309416264296 574.72845017910004 508.35599718242884 1301.1188935078681 1323.7913526445627 1051.5559055097401 64.622999500483274 2013.1207726746798 150.57942777127028 89.949859794229269 79.256330084055662 363.98355020582676 672.3019415140152 155.61752150207758 63.611093658953905 178.48926592990756 244.63331384956837 58.293233886361122 301.82291927188635 140.20599069818854 358.37936328724027 102.66621189191937 44.131049264222383 82.83169162645936 418.11019695922732 400.56521671637893 67.746833577752113 115.96183412522078 85.437588151544333 123.87371813878417 35.574183601886034 14.056419055908917 16.850487425923347 107.02922941371799 460.42709118500352 2348.3336256332695 87.023136001080275 2469.2611322440207 36.912202917039394 93.860627543181181 38.877448420971632 43.525567591190338 69.843244463205338
leaf_count=17989 39929 28928 1387 16922 5019 16177 570 4361 3120 910 2719 17836 2964 691 423 1271 3555 391 1114 1384 2099 2277 3815 15179 17830 1192 45422 2984 694 1342 4233 6927 2344 1028 3013 1624 736 2094 2145 5264 1679 827 1313 7342 6563 1037 2322 1679 888 559 288 49 1671 4069 11642 1128 42712 298 245 460 325 846
internal_value=0.232666 0.246519 0.226424 0.206108 0.120547 0.17349 0.268565 0.206569 0.135298 0.0935571 0.273656 0.24799 0.107664 0.212693 0.190678 0.235781 0.205016 0.088846 0.280109 0.166159 0.292434 0.228592 0.289575 0.170376 0.141694 0.254893 0.0728002 0.147981 0.0822754 0.182826 0.109544 0.162261 0.193761 0.176183 0.192347 0.267734 0.314099 0.196776 0.211039 0.184928 0.165104 0.209263 0.233964 0.163626 0.195508 0.245431 0.150683 0.225543 0.385451 0.268751 0.338222 0.480938 0.189343 0.158636 0.264315 0.103297 0.0757119 0.17481 0.32166 0.590745 0.260224 0.279949
internal_weight=63290.6 56330.7 29469.1 19912.1 6959.96 11193.9 26861.5 5998.43 5195.51 5568.85 25589.3 8718.17 3535.53 3127.28 2450.69 3645.84 2152.16 2891.1 1493.68 1272.25 676.591 1391.11 1452.31 3480.03 2016.04 2518.39 4031.32 1537.53 2818.72 1182.89 1415.54 1239.32 644.427 2236.74 1659.98 5590.89 633.022 1103.63 1464 882.754 801.809 1481.5 488.809 1386.95 968.84 568.274 338.931 222.969 229.344 9557.03 137.531 69.7844 699.143 567.456 2412.96 2018.2 2728.77 259.506 131.687 55.7279 105.47 21943.4
internal_count=377844 253958 191729 173181 123886 131822 62229 57969 73853 111326 49175 41359 53836 21899 18373 19401 13201 47215 6200 13054 3526 12560 5086 43748 26424 14221 86479 24847 46824 11670 22063 9646 6621 17950 20017 19460 2835 10328 17324 10283 8234 17004 4277 21863 14521 7958 5835 3513 2123 18548 1834 797 6555 5740 12834 41057 46130 3418 815 509 1235 29774
cat_boundaries=0 1 3 5 7 9 11 13 14 15
cat_threshold=2 2726825984 8 65536 16 3263758340 4194328 2148074002 12582961 1073809409 4325392 545883906 138412272 18 8
is_linear=0
shrinkage=0.05


Tree=3
num_leaves=63
num_cat=11
split_feature=81 310 8 31 181 2 0 28 22 7 31 27 20 185 13 106 14 38 7 49 29 1 20 17 101 101 14 1 362 4 0 13 135 3 3 27 29 13 0 5 27 195 151 23 25 27 24 9 9 1 19 15 13 119 13 25 13 15 4 362 151 3
split_gain=25058.2 7379.22 7287.16 5302.25 4665.02 4139.75 4356.43 3773.16 4216.8 2698.64 3157.4 2808.24 2930.12 2275.02 2032.7 1958.86 1852.92 1809.6 1755.05 2186.75 1692.68 1848.27 1732.02 1655.7 1613.9 1741.28 1565.98 2154.9 1455.1 1332.94 1317.33 1282.68 1264.39 1186.58 2117.64 1862.2 1174.24 1910.64 1266.79 1223.97 1135.54 1123.18 1122.84 1117.09 1160.16 1041.26 2037.1 1040.26 1215.07 1036.46 1043.44 1019.75 1012.65 1008.37 988.71 984.325 962.475 1047.82 963.979 948.187 945.76 936.556
threshold=1.0000000180025095e-35 1.5000000000000002 0 2.5000000000000004 24.667900085449222 1 2386228.0000000005 1.0000000180025095e-35 3.5000000000000004 225.50000000000003 8.5000000000000018 45.500000000000007 5.5000000000000009 11.807300090789797 2 1.0000000180025095e-35 3 6.5000000000000009 194.50000000000003 4 26.500000000000004 85.125000000000014 2.5000000000000004 1.0000000180025095e-35 1.0000000180025095e-35 1.5000000000000002 5 149.96000000000001 1773.5000000000002 577.50000000000011 6012684.5000000009 6 1.5000000000000002 4272.5000000000009 10057.500000000002 25.500000000000004 202.50000000000003 7 6547550.5000000009 149.50000000000003 11.500000000000002 1.0000000180025095e-35 4.5000000000000009 65.500000000000014 91.500000000000014 1.0000000180025095e-35 2.5000000000000004 327.50000000000006 338.00000000000006 151.05500000000004 1.5000000000000002 2.5000000000000004 8 1.5000000000000002 9 2.5000000000000004 10 1.5000000000000002 111.50000000000001 728.25000000000011 16.500000000000004 16258.000000000002
decision_type=2 2 9 2 2 1 2 2 2 2 2 2 2 2 9 2 9 2 2 1 2 2 2 2 2 2 9 2 2 2 2 9 2 2 2 2 2 9 2 2 2 2 2 2 2 2 2 2 2 2 2 2 9 2 9 2 9 2 2 2 2 2
left_child=1 2 5 18 9 14 26 -5 13 40 11 24 15 16 23 -13 20 -14 53 -20 21 32 56 36 -11 29 27 -7 33 -26 -8 -16 54 -21 -35 -36 39 38 -38 -1 42 -39 -2 44 -19 -32 -47 -24 51 -12 -51 -49 -23 -4 -9 -17 -22 58 -58 -6 -41 -27
right_child=4 -3 3 7 59 6 30 8 -10 10 49 12 17 -15 31 55 -18 43 19 28 22 52 47 -25 25 61 -28 -29 -30 -31 45 -33 -34 34 35 -37 37 41 -40 60 -42 -43 -44 -45 -46 46 -48 48 -50 50 -52 -53 -54 -55 -56 -57 57 -59 -60 -61 -62 -63
leaf_value=0.13168224772536974 0.07065971960875761 0.22401739219482975 0.14097978590889118 0.19725221639496662 0.23548644603479962 0.046048678820115541 0.23773014999305198 0.11736108525871417 0.21159625263414622 0.19579651310711221 0.03807245263100513 0.062010700129378704 0.33481460002914343 0.1936463440099149 0.1533342330407276 0.79090185842637073 0.0056081346422294995 0.16314057202375476 0.22636925251942799 0.10151170043251023 0.25139455756935453 0.18474249756002029 0.11701509088676827 -0.053777314634788069 0.062024095738002064 0.21802794648328594 0.0012965160585319835 0.2031719893647066 -0.056115565529308256 0.21409361385460982 0.20278298955626173 -0.050993223981958047 0.26795174503783198 0.22727786709524406 0.16000634027245753 -0.056738855726134477 0.2829444072362155 -0.00016154073187999717 0.10793925427703764 0.23020094921101544 0.010319966262356676 0.41903833188500395 0.39095353676565292 -0.014609267661133352 0.76655857980298514 0.058918318228211156 0.22254658546037243 -0.054247309176365645 0.13563450306914068 0.18217007983653355 0.020220550347486616 0.37189966609108432 0.091844468485479225 0.21550482924381531 -0.021567257487149927 0.45451315920172353 0.20973303081318667 0.030713108297564618 0.082125938769432569 0.018253676432538609 -0.053182554955595568 0.59687085403505269
leaf_weight=325.70160740613937 1717.0340534411371 17716.42816920951 1875.5967583917081 3626.9702066667378 697.76654038205743 440.1125312037766 1180.4875285327435 3606.3600154407322 1774.769962541759 545.92971178889275 1249.1559614799917 23.891338907182217 137.65407912805676 1214.6837380044162 274.15934704616666 32.687706477940083 346.61830912530422 150.93806288763881 5411.2984222732484 422.91815488040447 68.320715501904488 2323.6024483852088 639.50848152115941 53.528556365519762 1185.5373128578067 70.766817349940538 391.88821333274245 432.81020768731833 66.740118879824877 164.03914091736078 1038.3923488855362 103.96990131959319 135.61163621395826 1683.9264059178531 1078.5308282896876 109.1250761821866 295.08432906493545 202.19043021649122 159.1887673959136 15089.549010917544 1068.8687480427325 17.350091502070427 27.806054010987282 105.76992175355554 8.4094392061233503 460.76771029829979 323.93498078733683 15.621495861560105 172.8625933714211 292.37427509203553 150.73902963101864 138.5246393866837 417.21459348872304 598.80321975797415 136.84799321740866 64.972123883664608 167.44059555977583 1019.3566368706524 1274.6166089847684 54.129112705588341 29.499860499054193 21.20133837684989
leaf_count=1959 30735 11360 9864 8148 3895 6686 3264 41647 2807 6054 26811 384 833 4874 1692 140 5532 1583 14479 2646 519 20061 6183 971 20442 754 5642 2245 837 1466 1810 1317 576 4586 4909 1216 958 2765 1337 33295 21226 10 130 1828 22 5826 380 236 1536 3790 2827 380 4813 1052 2393 231 1914 13749 16934 412 756 117
internal_value=0.186475 0.196352 0.186379 0.169487 0.101485 0.209179 0.163418 0.151992 0.139789 0.0888031 0.114169 0.149735 0.252667 0.128876 0.220875 0.467827 0.121356 0.187734 0.196205 0.206695 0.125192 0.14018 0.0971732 0.223703 0.122581 0.0948533 0.0859595 0.122549 0.17502 0.0805079 0.19658 0.0972863 0.117972 0.179703 0.191218 0.140091 0.224763 0.160152 0.216845 0.227582 0.0509032 0.0315312 0.075764 0.111367 0.194985 0.169934 0.126466 0.154108 0.226648 0.0613781 0.127078 0.328713 0.17161 0.159015 0.112538 0.567106 0.0754205 0.0692335 0.0969427 0.219848 0.229648 0.305362
internal_weight=74630.6 66860.9 49144.5 28325.9 7769.67 20818.6 4268.39 17078.9 13452 7017.78 4204.07 2511.8 524.323 11677.2 16550.2 121.551 10462.5 402.772 11246.9 8772.54 10115.9 6619.64 3496.25 16172.1 1987.47 1441.54 1264.81 872.923 3361.24 1349.58 3003.58 378.129 3878.82 3294.5 2871.58 1187.66 16118.6 673.814 454.273 15444.8 2813.71 219.541 1744.84 265.117 159.348 1823.1 784.703 966.517 327.009 1692.27 443.113 154.146 2740.82 2474.4 3743.21 97.6598 2529.73 2461.41 1442.06 751.896 15119 91.9682
internal_count=377844 254164 242804 171891 123680 70913 25853 132302 124154 119373 67282 33854 5021 121347 45060 755 116473 4266 39589 28673 110941 69490 41451 42051 28833 22779 14573 8931 14194 21908 11280 3009 44616 13357 10711 6125 41080 5070 2295 36010 52091 2775 30865 3433 1605 8016 6206 8335 2152 33428 6617 616 24874 10916 44040 371 33116 32597 18848 4307 34051 871
cat_boundaries=0 1 2 4 6 7 9 11 13 15 17 19
cat_threshold=18 25 2793998102 4194353 2762540033 8388720 1 2684421120 8388624 1342228489 176291840 589842 17 2717979906 138412176 2760450596 138543216 35655680 9
is_linear=0
shrinkage=0.05


Tree=4
num_leaves=63
num_cat=9
split_feature=122 25 27 149 364 2 29 8 1 90 43 5 23 29 1 13 7 87 13 13 16 14 14 1 72 9 9 36 20 38 27 114 362 359 43 4 14 0 43 87 26 39 20 27 43 358 39 11 11 43 27 0 1 334 48 1 7 393 362 366 179 4
split_gain=17867.6 5851.71 5006.08 4755.93 3847.79 2798.15 2588.47 2161.58 1610.85 1588.47 1491.77 1380.66 1369.69 1364.73 1362.93 1362.2 1317.43 1422.33 1290.24 1245.26 1225.75 1215.74 1193.8 1225.81 1163.43 1346.28 1339.8 1050.32 1042.75 1028.41 1133.84 1207.11 1097.86 1051.47 1022.7 991.02 990.092 1439.92 960.11 1612.33 1235.68 929.071 905.18 901.101 888.824 888.24 1011.87 868.812 1405.76 859.768 839.272 829.669 1194.79 808.971 892.178 899.187 793.753 783.046 1021.94 933.043 776.991 1058.42
threshold=1.0000000180025095e-35 1.5000000000000002 1.0000000180025095e-35 1.0000000180025095e-35 105.06539916992189 0 33.500000000000007 1 59.005000000000003 1.5000000000000002 548.50000000000011 149.50000000000003 3.5000000000000004 26.500000000000004 63.262000000000008 2 190.50000000000003 1.0000000180025095e-35 3 4 14.500000000000002 5 6 171.08000000000001 1.0000000180025095e-35 252.00000000000003 228.50000000000003 49.145832061767585 1.5000000000000002 150.50000000000003 46.500000000000007 1.0000000180025095e-35 44.20940017700196 194.06950378417972 218.50000000000003 327.50000000000006 7 2386228.0000000005 70.500000000000014 1.0000000180025095e-35 1.0000000180025095e-35 131.50000000000003 1.5000000000000002 40.500000000000007 301.50000000000006 10.010600090026857 85.500000000000014 30.500000000000004 32.500000000000007 34.500000000000007 36.500000000000007 4714905.5000000009 49.956500000000013 1.5000000000000002 8 279.21500000000009 222.50000000000003 0.94800000000000406 53.85224914550782 67.95999908447267 335.23500061035162 346.50000000000006
decision_type=2 2 2 2 2 1 2 9 2 2 2 2 2 2 2 9 2 2 9 9 2 9 9 2 2 2 2 2 2 2 2 2 2 2 2 2 9 2 2 2 2 2 2 2 2 2 2 2 2 2 2 2 2 2 1 2 2 2 2 2 2 2
left_child=1 2 53 5 8 22 -3 11 60 15 19 -7 13 14 36 21 -10 24 29 38 35 45 23 -4 25 26 -18 34 -15 30 31 57 -33 -31 -13 -17 37 -9 -5 44 43 -6 -38 56 -40 46 -8 -30 -49 -39 -22 52 -51 54 55 -1 -41 58 -19 -59 -2 -62
right_child=4 6 3 10 41 7 9 12 16 -11 -12 27 -14 28 -16 20 17 18 -20 -21 50 -23 -24 -25 -26 -27 -28 -29 47 33 -32 32 -34 -35 -36 -37 42 49 39 40 -42 -43 -44 -45 -46 -47 -48 48 -50 51 -52 -53 -54 -55 -56 -57 -58 59 -60 -61 61 -63
leaf_value=0.085463581184795398 0.037410843628292688 0.18638089046564418 0.031789488116438211 0.18329157821051933 0.18375968938659262 0.014336325255932618 0.15431051674940502 0.02070425430389999 0.037801199815531497 0.19336698486149845 0.01751517546437794 0.16797875238627191 0.27059480457520957 0.044427670421859453 0.14379845852084736 0.10197301413710608 0.16271663340165685 -0.054067193435029096 -0.016596349233313368 0.10817307768973582 0.22409626403001465 -0.035634617241909368 -0.018752075704490327 0.16541090105498754 0.037456662133928391 0.033555252385767231 0.6942390399045546 0.084779657219611948 0.091632215530788291 0.032163952396636386 0.26764982951506111 0.13890023973756904 0.016021341362925382 0.16201725913034279 0.075226044807200257 -0.030790134867370651 0.065007612113611959 0.13074618539231625 0.1068583931463994 0.06204317715125901 0.010985308001962141 0.078416052524189817 0.16967723084490816 -0.055457677088326787 0.21875293067853618 0.17861724495228731 0.092249184975515999 0.60455242010678423 0.16481698738353498 0.11624411880133088 -0.056560945414122411 0.18214254216658987 0.56616693063726631 0.14962279983844726 0.18708200580064011 0.18427017436880444 0.16307782436804122 0.26234114162198069 0.330059895601089 0.012271941304079903 0.26110100472676406 -0.054285629929014104
leaf_weight=454.10797699540854 2631.5303427912295 27370.162748489529 418.61495912075043 6725.5602577738464 1128.0980217568576 177.19023338705301 2627.5319935716689 255.15636539831758 893.90182162821293 2077.9501722082496 168.72714922204614 4970.4871533848345 133.87083294987679 1228.5434201359749 3220.4077689982951 301.40102004632354 25.582236010581255 55.809626005589962 155.2676505446434 949.74467523023486 177.18548218533397 88.46086697280407 445.88881725817919 290.91531199961901 896.12851852551103 47.805988166481256 22.096378535032272 474.54284309968352 615.22065620496869 403.65718903392553 200.44019092991948 779.25873742997646 237.07525971159339 253.98577432334423 316.09116255119443 263.40240303426981 1921.8497038148344 1133.0145171284676 225.43486019223928 241.65545750036836 241.64499701187015 256.98016459867358 231.42711128666997 59.772452164441347 834.22724712267518 2333.2154534161091 875.66891114041209 20.940356452018023 137.60987131297588 24.199007350951433 31.350413512438536 207.39738374948502 37.811389539390802 2266.4704491533339 9577.5148387849331 467.11488787084818 993.98899360001087 352.41572188213468 25.102628104388714 41.716515582054853 87.117175839841366 38.295806705951691
leaf_count=1940 52186 28396 5957 16840 4910 1958 10423 3146 15138 3643 1788 20791 344 16662 25431 2049 412 835 2840 5428 113 1532 8321 1737 15414 883 29 4282 6037 6998 1448 9742 3845 2507 3285 2855 26496 7003 1416 1843 2154 2541 1574 807 2124 5428 6914 50 1148 258 366 1313 134 4947 10459 1010 4699 2972 188 643 611 601
internal_value=0.15653 0.16427 0.150958 0.138646 0.0879412 0.121737 0.178804 0.127464 0.0731599 0.155175 0.164981 0.151553 0.111712 0.109481 0.119852 0.143327 0.0919703 0.10582 0.125885 0.167403 0.0773075 0.151558 0.0453736 0.0853725 0.0551354 0.221051 0.409048 0.156037 0.0730631 0.134798 0.155997 0.140991 0.110237 0.0823141 0.162433 0.0400574 0.0996153 0.129179 0.173135 0.147497 0.114784 0.164215 0.0759047 0.134147 0.194948 0.154452 0.138798 0.118529 0.222895 0.149836 0.181903 0.230121 0.390589 0.176713 0.182562 0.135564 0.143318 0.206787 0.0651063 0.235873 0.0432055 0.164795
internal_weight=84145.7 75613.5 39467.1 26701.9 8532.27 16261.2 36146.3 15105.8 7147.19 8776.17 10440.8 5938.31 9167.45 9033.58 7031.26 6698.22 4390.24 3496.34 2504.73 10272 773.339 5924.88 1155.42 709.53 991.613 95.4846 47.6786 5761.12 2002.31 2349.46 1691.82 1491.38 1016.33 657.643 5286.58 564.803 3810.86 1657.58 9322.28 2596.72 1537.06 1385.08 2153.28 1295.42 1059.66 5836.42 3503.2 773.771 158.55 1402.42 208.536 269.408 62.0104 12765.2 10498.7 921.223 1235.64 475.044 80.9123 394.132 2756.94 125.413
internal_count=377844 253101 191382 173026 124743 135927 61719 119912 117292 33323 37099 30316 89596 89252 65355 29680 63894 48756 32018 35311 5383 24297 16015 7694 16738 1324 441 28358 23897 29178 19673 18225 13587 9505 24076 4904 39924 11854 29883 13043 9503 7451 28070 7349 3540 22765 17337 7235 1198 8708 479 1705 392 18356 13409 2950 6542 4638 1023 3615 53398 1212
cat_boundaries=0 1 2 4 6 8 10 12 14 15
cat_threshold=4 2 2148081680 4194321 3221815836 138412048 2994800389 4194328 2181627904 16 75564289 8388624 537460736 16 1
is_linear=0
shrinkage=0.05


Tree=5
num_leaves=63
num_cat=13
split_feature=19 15 0 29 2 360 13 1 1 13 310 360 28 13 14 13 27 87 362 359 20 27 4 0 27 43 4 36 1 30 9 13 27 36 13 244 13 30 50 9 72 88 9 3 185 3 178 85 31 48 19 1 13 19 331 90 4 363 2 4 3 25
split_gain=13425.2 5874.27 3659.83 3816.85 3309.13 2967.17 2409.48 2152.37 1838.3 1731.91 1609.9 2064.09 1897.49 1603.6 1472.9 1205.28 1188.84 1351.98 1364.68 1111.34 1097.22 1093.14 1078.1 1057.99 1046.09 1634.44 999.337 993.979 1151.22 1225.11 975.605 975.156 951.589 945.869 942.93 927.505 907.955 1163.82 1008.48 1426.64 899.601 981.34 888.692 858.906 848.889 814.548 794.6 792.539 764.672 762.591 737.746 739.44 723.081 713.558 702.266 694.472 724.699 679.769 669.675 661.259 657.856 832.733
threshold=1.0000000180025095e-35 3.5000000000000004 2386228.0000000005 69.500000000000014 0 47.960000991821296 1 149.96000000000001 159.01250000000002 2 1.5000000000000002 149.00740051269534 1.0000000180025095e-35 3 4 5 26.500000000000004 1.0000000180025095e-35 178.2600021362305 138.92499542236331 1.5000000000000002 1.5000000000000002 553.50000000000011 1687527.5000000002 127.50000000000001 26.500000000000004 582.50000000000011 34.104166030883796 226.12500000000003 56.500000000000007 333.50000000000006 6 1.5000000000000002 82.645832061767592 7 1.5000000000000002 8 516.50000000000011 9 435.50000000000006 1.5000000000000002 1.5000000000000002 203.50000000000003 6018.5000000000009 25.006999969482425 12501.500000000002 48.98500061035157 1.0000000180025095e-35 1.0000000180025095e-35 10 12.500000000000002 26.955000000000002 11 225.50000000000003 30.500000000000004 1.5000000000000002 111.50000000000001 47.429700851440437 12 194.50000000000003 6530.5000000000009 1.5000000000000002
decision_type=2 2 2 2 1 2 9 2 2 9 2 2 2 9 9 9 2 2 2 2 2 2 2 2 2 2 2 2 2 2 2 9 2 2 9 2 9 2 1 2 2 2 2 2 2 2 2 2 2 1 2 2 9 2 2 2 2 2 1 2 2 2
left_child=1 2 4 6 22 8 10 35 15 19 11 12 -4 24 23 26 -3 -18 -19 -5 21 27 34 -9 50 -26 36 48 29 -29 42 49 -22 -31 45 -6 44 38 39 -38 41 54 43 -21 55 -1 -23 -32 -14 -10 51 -7 -24 57 -11 -2 -57 -17 -16 -39 61 -51
right_child=5 16 3 9 7 13 -8 14 31 40 -12 -13 20 -15 58 53 17 18 -20 30 32 46 52 -25 25 -27 -28 28 -30 33 47 -33 -34 -35 -36 -37 37 59 -40 -41 -42 -43 -44 -45 -46 -47 -48 -49 -50 60 -52 -53 -54 -55 -56 56 -58 -59 -60 -61 -62 -63
leaf_value=0.14708797131890419 0.044767004496635537 0.16565436668394362 0.15311583816442223 0.081586670443478698 0.0091137562906285514 -0.03476868312575089 0.039490199062705039 0.1741678409076014 0.2284195921035965 0.012202160302842496 0.16944573239164151 0.16019837788004043 0.10180383306266035 0.0038204997001701638 0.13810762652171707 0.0060385037833142917 0.15587643960808417 0.11999705112670821 -0.016050427377085019 0.15935235896003799 0.20119227906998749 0.081430078680521267 0.13526080118637579 0.054055619991172879 0.18797685107683743 -0.0013081994535492844 0.19794308378130387 0.17149472036165014 0.16753965144651906 0.11050880219792168 0.043841477616405694 -0.008778151232921326 0.13332784293841762 0.028647357936128898 -0.00032095441979268762 0.18017095103951394 -0.052896195169555432 0.56043475129366505 0.053168667728548294 0.92500485338978367 0.19299927220366675 0.20987358030281578 0.15934940717589022 0.0046265008182124773 0.16476052589488088 0.1028119998743825 0.14956976546268386 0.27446866362499805 0.20799344901090527 0.10197005517403868 0.21661783628905462 0.13428352057309081 0.0019403953290410899 0.49527574517567008 0.32929217542458988 0.38655268940837623 0.10096854784772231 0.6782296009540425 -0.036321149030760662 -0.052476469605279311 0.08608135546595215 0.21827988830544418
leaf_weight=3711.4259220771492 3257.7358976230025 23422.35162647441 7774.5535075217485 1626.6183170117438 1464.53970053792 66.066140484064817 568.92742928117514 644.47595117241144 134.75588105246425 960.76460507884622 6065.6941545754671 10124.487279318273 237.41914071515203 293.26931102573872 62.339884717017412 1395.9511530026793 1727.3578566946089 626.09681385755539 261.2387077677995 163.07386101782322 722.56328281015158 2789.1126178465784 148.92928398400545 256.2256476432085 170.23914633318782 345.50065105035901 136.24118784442544 796.09565030410886 1115.9097416996956 6065.9938580691814 400.27705580368638 185.73003059998155 1811.6221874989569 374.66257284581661 143.06457804888487 83.778514683246613 6.6673961877822885 26.846611402928829 90.609314136207104 8.4644915796816331 93.348864212632179 71.480889413505793 1999.4044266417623 199.32572735473514 167.19418924674392 1442.5090737901628 505.36980862170458 41.073615849018097 592.89567536488175 396.10542879626155 271.63854690641165 3093.3665836825967 294.10122141242027 7.5489671155810347 17.784517027437687 28.12366821616888 105.71808151528239 3.7712691128253928 220.26263726502657 5.2634148187935343 1380.4426558539271 251.66560819000006
leaf_count=13743 55750 14900 10375 15401 19033 888 4402 1807 546 10139 4675 15668 977 3115 215 26019 2355 1837 2902 663 1401 18968 760 1922 388 3746 1114 2329 3950 46501 2939 3069 7975 4055 1330 101 136 41 1567 28 425 180 7674 1808 1154 7631 1763 27 2192 4483 572 17073 2532 83 16 161 1300 16 2916 118 16026 2000
internal_value=0.135218 0.142601 0.133135 0.138797 0.102981 0.0855148 0.144257 0.0569614 0.0667965 0.100059 0.145738 0.141413 0.133066 0.119017 0.107939 0.0503212 0.162085 0.130107 0.0799436 0.114205 0.122683 0.116591 0.124565 0.138462 0.127244 0.0611724 0.064786 0.125455 0.120269 0.11298 0.13354 0.103554 0.152678 0.105747 0.131049 0.0183696 0.0600537 0.18305 0.116271 0.494123 0.0438693 0.0310293 0.146292 0.0742506 0.0546215 0.134435 0.0918826 0.0653044 0.17763 0.112719 0.137547 0.130749 0.0498543 0.0103904 0.0179651 0.049353 0.160977 0.00784959 0.00556142 0.459968 0.105588 0.147158
internal_weight=91456.1 79627.2 53590.1 45118.5 8471.65 11828.9 39545.3 2731.62 7588.84 5573.15 38976.4 32910.7 22786.2 4240.08 1183.3 5240.14 26037 2614.69 887.336 4429.77 15011.6 12477.5 5740.03 900.702 3946.81 515.74 3832.86 9182.98 8352.66 7236.75 2803.15 2348.7 2534.19 6440.66 5297 1548.32 3696.62 137.851 105.741 15.1319 1143.38 1050.03 2361.8 362.4 3558.77 5153.93 3294.48 441.351 830.315 2162.97 3431.07 3159.43 443.031 1407.27 978.549 3391.58 133.842 1399.72 282.603 32.11 2028.21 647.771
internal_count=377880 238487 216493 164503 51990 139393 125231 25994 113611 39272 120829 116154 100486 25782 6860 87487 21994 7094 4739 28512 90111 80735 25996 3729 22667 4134 61369 60004 56835 52885 13111 26124 9376 50556 22704 19134 60255 1890 1731 164 10760 10335 10145 2471 58365 21374 20731 2966 3169 23055 18533 17961 3292 26118 10155 57211 1461 26035 3131 159 22509 6483
cat_boundaries=0 1 3 5 7 9 11 13 15 17 18 19 20 21
cat_threshold=17 4138276663 138543280 2181141776 4194313 3800629760 4194304 2692808708 8388624 3792273420 134219792 3263758340 138416136 2794012678 4194385 2148073476 2064 2 2 3221749800 10
is_linear=0
shrinkage=0.05


Tree=6
num_leaves=63
num_cat=15
split_feature=19 15 8 180 13 36 333 28 13 332 1 14 13 39 13 2 14 13 3 3 7 39 5 378 14 13 0 310 20 362 29 366 3 2 38 5 16 43 1 72 43 7 49 45 4 30 15 28 63 7 4 4 4 28 1 3 3 0 0 2 43 4
split_gain=10857.7 5374.57 3452.31 2573.57 2295.6 2166.28 1937.81 2176.84 1627.28 1429.11 1383.18 1380.85 1222.66 1221.54 1194.88 1068.5 1236.62 1061.49 1054.57 1196.63 1007.61 1006 991.577 949.165 891.496 876.922 861.583 864.831 860.176 819.713 1351.86 928.462 810.932 802.369 932.976 770.343 765.976 806.865 758.743 748.041 713.615 997.695 1047.7 987.054 730.946 693.8 1179.22 670.361 688.055 709.006 667.588 665.661 790.338 655.459 644.741 711.395 659.659 636.209 1120.18 725.168 640.598 585.779
threshold=1.0000000180025095e-35 3.5000000000000004 0 47.952199935913093 1 140.06250000000003 1.0000000180025095e-35 1.0000000180025095e-35 2 1.5000000000000002 58.95450000000001 3 4 199.50000000000003 5 6 7 8 10057.500000000002 9300.5000000000018 225.50000000000003 60.500000000000007 184.50000000000003 8.5000000000000018 9 10 2587965.5000000005 1.5000000000000002 4.5000000000000009 519.25000000000011 359.50000000000006 664.25000000000011 14649.500000000002 11 203.50000000000003 148.50000000000003 6.5000000000000009 1.0000000180025095e-35 115.01300000000002 1.5000000000000002 123.50000000000001 225.50000000000003 12 13 111.50000000000001 304.50000000000006 2.5000000000000004 2.5000000000000004 1.0000000180025095e-35 125.50000000000001 122.50000000000001 297.50000000000006 553.50000000000011 1.0000000180025095e-35 265.00500000000005 5170.5000000000009 9501.0000000000018 2386228.0000000005 1869699.5000000002 14 215.50000000000003 420.50000000000006
decision_type=2 2 9 2 9 2 2 2 9 2 2 9 9 2 9 1 9 9 2 2 2 2 2 2 9 9 2 2 2 2 2 2 2 1 2 2 2 2 2 2 2 2 1 1 2 2 2 2 2 2 2 2 2 2 2 2 2 2 2 1 2 2
left_child=1 2 5 10 6 8 7 -4 13 25 -2 33 20 24 15 16 -6 36 19 -17 38 23 -7 -3 -1 26 -9 39 -23 32 31 -31 -11 53 -35 -19 -12 -38 -5 40 41 43 51 44 -28 -22 -47 -39 49 -49 -34 -43 -53 -10 55 -44 -57 58 60 -60 -26 -30
right_child=3 21 4 12 14 22 -8 9 11 29 17 -13 -14 -15 -16 18 -18 35 -20 -21 45 28 -24 -25 57 -27 27 -29 61 30 -32 -33 50 34 -36 -37 37 47 -40 -41 -42 42 54 -45 -46 46 -48 48 -50 -51 -52 52 -54 -55 -56 56 -58 -59 59 -61 -62 -63
leaf_value=0.065112736224177334 0.03354845883593751 0.14663381003344036 0.13220743154035811 0.04316959760804176 0.19021057741668893 0.040306141209135685 0.14180296174698523 0.055101531663268734 0.10985368461880346 0.13535480392470309 0.077942491682334317 -0.032062753075160731 -0.0011676743512444054 0.040279047675215736 -0.021613153498294211 0.069212100661804263 0.0052434054341821655 0.39213066204785207 0.040896558046249143 0.14813129195313374 0.14401898806796271 0.081190603392948812 0.13000678857813236 -0.055060621000970734 0.142824251707905 0.18631718396462241 0.15057806697841813 0.15298342169499893 0.16943938816304122 -0.0087148081530089763 0.15001353408187756 0.10703352728925244 0.17624762206663236 0.12364581968379096 -0.056047030913257551 0.036000677775364594 0.23468708657517723 0.33386294559668617 0.12020723300870613 0.1598433753217853 0.060318522299610704 0.083564702969209689 -0.015457102058471671 0.097097576517485684 0.02986198992442118 0.18073613711752035 -0.023675606759475273 0.29487363091691204 0.036717948075826602 0.11081460072762905 0.027647183761867429 0.17426282702020357 0.062341362590227045 -0.0030290593533241145 0.15831392332727953 0.13237204713450595 0.055084998163185829 0.14935501235503312 0.10721351147586966 -0.0096187915478942281 -0.057949754870282269 -0.0073406526646561058
leaf_weight=410.82124310731888 3063.4916232228279 26037.459565166384 5850.4356628805399 668.47415153682232 407.15456337854266 922.9410567805171 4465.4594545178115 1979.3305468223989 252.82219462096691 3874.7704090215266 3127.8893897719681 168.69200738146901 247.05024000257254 290.86309142783284 310.58225408941507 1589.5475759133697 126.82379067316651 15.337739858776329 1686.1548078618944 688.31424189731479 2218.034665606916 1133.8686115778983 462.46423834934831 58.461198149248958 2130.7041042521596 223.33507657423615 139.25027415528893 536.81184972822666 562.04181446880102 424.80136570706964 437.44328279793262 292.57363728433847 98.626971106976271 4732.8688755221665 73.354740142822266 1522.1138994842768 154.98886352032423 31.474092997610569 612.44118135422468 345.59936145693064 2217.4650200344622 392.52351880818605 204.88528689369559 1916.6519870124757 1260.6888584904373 121.24135667458177 168.76393487304449 62.397128600627184 271.88435749337077 323.99842555448413 323.4399281218648 1088.4111900664866 184.46759070083499 261.71896619349718 246.36990984901786 456.58489459380507 698.38726568967104 15053.630228944123 307.48722983896732 233.08976621553302 40.484122611582279 51.12295525893569
leaf_count=3011 52252 13879 8407 6265 590 7212 7405 19045 722 8637 36333 1825 2633 2236 3315 10066 1241 55 11863 2161 8125 5783 1036 1245 6861 1196 847 704 770 2999 758 599 259 12057 913 21699 620 55 2590 1381 20906 3115 2272 11571 11844 594 1854 226 3819 2273 1760 6229 1528 3409 907 3002 5974 22761 958 2480 431 317
internal_value=0.119298 0.125676 0.116983 0.0759806 0.105979 0.130987 0.111601 0.105834 0.134555 0.096937 0.0604824 0.109527 0.108903 0.141858 0.0734803 0.0800798 0.147183 0.0754571 0.0706929 0.0930596 0.115778 0.143723 0.0702493 0.146182 0.143562 0.0872183 0.0850887 0.0913031 0.106991 0.118135 0.0807361 0.0384919 0.128186 0.114068 0.120652 0.0392979 0.0891279 0.1316 0.0800034 0.087685 0.084853 0.0931108 0.112701 0.0737857 0.0418695 0.13451 0.061782 0.108436 0.0976576 0.140537 0.0623716 0.140489 0.158043 0.0514367 0.0838901 0.0704065 0.0856382 0.145257 0.123046 0.0586423 0.139081 0.1547
internal_weight=98261.4 85651.8 57808.8 12609.6 32466.9 25341.9 27658.3 23192.9 23956.5 17342.4 8573.58 5489.46 4036.01 18467.1 4808.58 4497.99 533.978 5510.08 3964.02 2277.86 3788.96 27843 1385.41 26095.9 18176.2 11890.8 11667.4 9688.1 1747.03 5451.66 1154.82 717.375 4296.84 5320.76 4806.22 1537.45 3972.63 844.743 1280.92 9151.29 8805.69 6588.22 3271.63 3316.59 1399.94 2508.04 290.005 689.754 658.28 386.396 422.067 1665.4 1272.88 514.541 1606.23 1359.86 1154.97 17765.4 2711.77 540.577 2171.19 613.165
internal_count=377880 238487 216493 139393 150581 65912 121345 113940 57664 105533 117332 18926 22061 38738 29236 25921 1831 65080 24090 12227 19428 21994 8248 15124 36502 90521 89325 70280 6870 15012 4356 3598 10656 17101 12970 21754 43326 6993 8855 69576 68195 47289 23027 24262 12691 10573 2448 6373 6318 2499 2019 10872 7757 4131 12155 11248 8976 33491 10730 3438 7292 1087
cat_boundaries=0 1 3 5 7 9 11 12 14 16 18 20 21 22 23 24
cat_threshold=2 2720077109 138412217 3833660180 4194480 2223574278 83886088 3800629760 138412032 92834306 5184 2 545785858 16 3792240644 134217736 34079250 262145 2181103621 138412177 4 1 2 17
is_linear=0
shrinkage=0.05


Tree=7
num_leaves=63
num_cat=12
split_feature=100 310 8 370 30 181 14 7 49 2 0 392 392 14 36 392 392 14 361 121 46 17 16 5 127 188 7 27 23 88 39 49 30 29 39 0 24 27 19 16 48 97 39 4 28 5 394 39 48 4 19 75 23 16 11 4 29 14 2 392 128 25
split_gain=9138.45 5820.81 3431.15 2634.57 1689.14 1583.26 1447.8 1830.49 2072.69 1409.02 1906.67 1208.39 1010.17 890.329 870.52 804.692 777.124 772.06 765.995 766.444 723.712 704.955 651.413 626.114 607.026 843.736 635.095 954.09 1015.78 928.089 842.026 610.259 604.987 597.661 594.748 594.145 753.529 1049.89 586.247 964.191 827.476 698.003 624.502 595.784 584.33 582.125 578.872 574.22 573.942 1241.64 579.526 1274.33 614.905 560.757 559.528 849.128 634.981 608.033 729.25 658.664 694.448 763.488
threshold=1.0000000180025095e-35 1.5000000000000002 0 1.0000000180025095e-35 199.50000000000003 24.667900085449222 1 215.50000000000003 2 3 2386228.0000000005 5.3810481020346002 5.0170148988662477 4 82.645832061767592 4.8746360809325848 3.8056397407639295 5 13.529850006103517 1.5000000000000002 6 1.0000000180025095e-35 2.5000000000000004 143.50000000000003 1.0000000180025095e-35 63.925001144409187 225.50000000000003 45.500000000000007 2.5000000000000004 1.0000000180025095e-35 6.5000000000000009 7 92.500000000000014 251.50000000000003 514.50000000000011 6201505.5000000009 1.5000000000000002 1.0000000180025095e-35 90.500000000000014 9.5000000000000018 8 1.5000000000000002 292.50000000000006 490.50000000000006 7.5000000000000009 149.50000000000003 22.500000000000004 121.50000000000001 9 479.50000000000006 1.0000000180025095e-35 1.5000000000000002 1.5000000000000002 8.5000000000000018 30.500000000000004 111.50000000000001 372.50000000000006 10 11 5.421308736577128 2.5000000000000004 1.5000000000000002
decision_type=2 2 9 2 2 2 9 2 1 1 2 2 2 9 2 2 2 9 2 2 1 2 2 2 2 2 2 2 2 2 2 1 2 2 2 2 2 2 2 2 1 2 2 2 2 2 2 2 1 2 2 2 2 2 2 2 2 9 1 2 2 2
left_child=1 2 4 6 9 15 14 11 16 21 12 48 -11 -6 -4 24 32 -14 19 54 -17 34 -22 -19 -2 26 29 30 -29 -26 -28 -30 33 -9 45 -12 37 -37 39 40 42 43 -18 -42 -15 -1 -39 -24 49 -8 -50 -52 -53 -34 57 56 -56 58 -10 60 61 -59
right_child=5 -3 3 -5 13 -7 7 8 18 10 35 -13 17 44 -16 20 38 23 -20 -21 22 -23 47 -25 25 -27 27 28 31 -31 -32 -33 53 -35 -36 36 -38 46 -40 -41 41 -43 -44 -45 -46 -47 -48 -49 50 -51 51 52 -54 -55 55 -57 -58 59 -60 -61 -62 -63
leaf_value=0.073920916935642525 0.012843750635307349 0.13247204168586221 0.11392509484084219 0.11457712333537065 0.11600981348744638 0.12044284551962484 -0.00014535136980630624 0.096851300731683937 0.18170682993648904 0.0071648005675917607 0.13613116996819638 0.10471109741511045 0.11169355957719021 -0.018053948907047802 0.052500993092733705 0.11968586982770275 0.13426575794191942 0.23996742839732721 0.11090854560945236 0.2214278922666405 0.036164066578099001 -0.055112358838620902 0.13190392145902152 -0.040093225807942903 0.12680830647850053 0.15695580499741466 0.095542771077908359 0.31160067706557965 -0.0097293569342038425 -0.0068294422524600665 0.0092516128903256008 0.14773219020762027 0.026690905218257843 0.30132268746464974 -0.06025774901672834 0.10427883911419167 0.13085373295141281 -0.0063502446369328516 -0.055743816493369819 0.19642019283003148 0.10706612399122423 -0.033474242562498181 0.050425030061227352 0.05408834321524672 0.12890871746487376 0.12675430676560914 0.16677695087829136 0.032167938851860513 0.067427411412187638 0.1000123345034984 -0.0054614594007304932 0.54198363636795743 -0.055369608089999772 0.15696057947334574 0.14448977402509086 0.07692890671024466 0.36710835942638576 0.02552711953963098 0.072274759092380444 0.085808800471838031 0.18900707378371237 0.071319831434483408
leaf_weight=533.62168248742819 1823.6030228249729 23961.812723822892 5989.2867524214089 11959.58037718758 271.4294269643724 837.42870948836207 1267.4445090927184 527.55380623787642 199.39212005585432 744.70250670239329 1752.8491476401687 1166.812690269202 656.37373968213797 433.59043684974313 638.29483528807759 573.88184410706162 3076.3640964701772 22.740850657224655 1077.2048568055034 78.135847914963961 1343.6288951896131 54.335383422672749 418.35087102651596 163.00712007284164 152.16317612305284 172.93232344090939 457.68018720299006 66.953205041587353 93.038680769503117 888.70597343891859 739.46438433974981 181.70831594988704 676.01753099262714 38.334865473210812 43.151491649448872 992.43880229443312 1033.0675935819745 417.24106188490987 51.185899365693331 338.95727309212089 2944.9830798581243 104.65700930356979 239.39138415455818 647.34300851821899 80.137839123606682 22693.422426041216 54.60116645693779 220.31760911270976 3226.2058324106038 409.38070130720735 503.80641612783074 16.175988987088207 5.8719535879790774 94.109318938106298 107.81101366505027 525.92757357284427 45.571105994284153 2794.6573188975453 823.78845955058932 1159.2074322104454 80.180290542542934 1349.8872351050377
leaf_count=2386 30757 11245 15769 20607 1195 3518 11717 2992 421 9464 3314 5064 2344 5126 3200 4531 11058 6 3929 203 15624 795 3014 2085 2126 1267 5853 72 1482 15487 12156 1785 6935 59 386 1600 956 4723 658 741 17787 867 1755 4963 423 38905 244 2778 20025 2777 7225 38 84 375 507 3503 96 28580 4247 6230 21 9800
internal_value=0.106854 0.111122 0.104027 0.0946923 0.1171 0.055405 0.0868501 0.0808677 0.089585 0.119087 0.0961912 0.0585476 0.0495876 0.0447694 0.107847 0.0477688 0.10655 0.0871029 0.0715972 0.0656866 0.07024 0.124722 0.0559252 -0.00550922 0.035217 0.0500391 0.0428718 0.0632753 0.136967 0.0127069 0.0422416 0.0944104 0.0714516 0.110703 0.125196 0.113817 0.0981552 0.075086 0.112884 0.114058 0.110077 0.0938112 0.128213 0.0975194 0.00477814 0.125541 0.0136839 0.0974986 0.0486258 0.0243072 0.059494 0.0108214 0.382893 0.0426098 0.0639694 0.107118 0.210632 0.0593946 0.0951526 0.0523251 0.0432615 0.0404419
internal_weight=104042 96072 72110.2 42163.5 29946.7 7969.86 30203.9 23576.4 16980.7 29161.6 5837.02 6595.7 1586.82 785.158 6627.58 7132.43 8738.9 842.122 8241.76 7164.56 2556.18 23324.5 1982.3 185.748 4576.25 2752.65 2579.71 1538.84 341.7 1040.87 1197.14 274.747 1336.02 565.889 23270.2 4250.2 2497.35 1464.28 7402.88 7351.7 7012.74 3696.98 3315.76 3592.33 513.728 23227 471.842 638.668 5428.89 1676.83 3752.06 525.854 22.0479 770.127 7086.42 679.31 153.382 6407.11 1023.18 5383.93 4224.72 4144.54
internal_count=377880 277430 266185 192233 73952 100450 171626 152657 105727 67208 24736 46930 13899 6744 18969 96932 48190 4435 57537 53608 25947 42472 21416 2091 70985 40228 38961 21348 3339 17613 18009 3267 10361 3051 41677 10837 7523 6567 37829 37171 36430 23617 12813 22750 5549 41291 4967 5792 41866 14494 27372 7347 122 7310 53405 4106 603 49299 4668 44631 38401 38380
cat_boundaries=0 1 3 4 5 6 8 9 10 11 12 13 14
cat_threshold=2 545325056 8388656 1 25 590080 2684420100 8388624 1 2 2 1 67634180 2
is_linear=0
shrinkage=0.05


Tree=8
num_leaves=63
num_cat=18
split_feature=19 15 28 366 2 185 1 13 1 313 360 14 49 16 13 87 362 1 2 39 13 13 378 128 6 393 8 32 1 13 362 30 1 362 29 13 352 48 16 9 29 1 7 359 151 14 23 30 16 32 9 51 23 13 85 119 138 13 30 31 113 48
split_gain=7977.21 5265.37 3122.92 4267.09 1843.73 1718.29 1513.88 1494.1 1201.2 1198.78 1156.29 1153.42 924.162 1061.78 940.256 1065.53 1183.4 961.725 942.944 922.251 911.756 858.68 769.723 768.945 754.836 836.472 731.242 746.195 688.477 663.605 660.693 677.253 658.786 815.63 655.658 632.137 628.441 626.283 615.077 767.336 717.832 709.939 656.957 614.884 586.484 584.106 578.032 781.54 571.557 554.308 550.209 548.559 547.049 544.956 542.576 538.208 534.495 527.418 527.003 519.548 519.104 538.655
threshold=1.0000000180025095e-35 3.5000000000000004 1.0000000180025095e-35 24.299949645996097 0 28.2463493347168 47.952000000000005 1 427.54500000000007 1.5000000000000002 149.00740051269534 2 3 3.5000000000000004 4 1.0000000180025095e-35 384.62500000000006 76.995000000000019 5 60.500000000000007 6 7 8.5000000000000018 1.5000000000000002 8 0.94999999999999984 9 397.50000000000006 149.96000000000001 10 161.03984832763675 131.50000000000003 48.955000000000005 511.16000366210943 96.500000000000014 11 1.5000000000000002 12 6.5000000000000009 204.50000000000003 132.50000000000003 107.95450000000001 163.00000000000003 214.19999694824222 4.5000000000000009 13 5.5000000000000009 254.50000000000003 8.5000000000000018 85.500000000000014 443.50000000000006 14 65.500000000000014 15 1.0000000180025095e-35 1.5000000000000002 1.5000000000000002 16 119.50000000000001 8.5000000000000018 1.0000000180025095e-35 17
decision_type=2 2 2 2 1 2 2 9 2 2 2 9 1 2 9 2 2 2 1 2 9 9 2 2 9 2 9 2 2 9 2 2 2 2 2 9 2 1 2 2 2 2 2 2 2 9 2 2 2 2 2 1 2 9 2 2 2 9 2 2 2 1
left_child=1 2 45 4 11 6 -2 38 9 12 21 28 13 20 15 30 17 18 -17 22 -6 26 -3 44 25 35 -5 -28 -4 32 49 -32 55 -34 -26 -9 59 -15 39 40 41 42 -8 -38 -22 -1 47 50 -37 -14 -41 -7 -40 -30 -20 56 -16 -21 60 -27 -19 -62
right_child=5 19 3 10 8 51 7 24 -10 -11 -12 -13 14 37 29 16 -18 58 54 57 23 -23 -24 -25 34 36 27 -29 53 -31 31 -33 33 -35 -36 48 43 -39 52 46 -42 -43 -44 -45 -46 -47 -48 -49 -50 -51 -52 -53 -54 -55 -56 -57 -58 -59 -60 -61 61 -63
leaf_value=0.11935950964391501 0.016201749944602939 0.12182437646717151 0.0088369710526303366 0.11690780907894785 0.20486499466286731 0.12814488159628404 -0.054382833801834687 0.10225261252838654 0.11696881103457724 0.12188518134078824 0.11530433351013569 -0.025767299388413337 0.099553326863919475 0.15732234387813634 0.026192693020349524 0.00023351794213426994 -0.014339531707946286 0.14956779762274955 0.065761527352570598 0.094165161376606049 0.043276842550595683 -0.024767604149240632 -0.05530943039671752 0.12690760525471814 0.041418735755816727 0.052761531487612236 0.083372520610190404 -0.047164576435404386 0.099391993608729565 -0.032244497211734002 -0.005822938221782677 0.15044729641450008 0.084321365250793201 -0.060185054455222944 -0.023237294213647793 0.029344699644559564 0.47875195368841511 0.00505402417219852 0.15117317776695394 0.05048155699194571 0.036891515363061102 0.089879137096004966 0.23350441864042618 -0.058098255783422925 -0.036442028342324871 0.099534109697994366 0.16834629130214651 -0.031701661273137727 0.1200497376247 0.051481118236952284 0.13437061767026759 0.079118627235364905 0.052851880871156547 -0.027441948424896334 0.16336324565853222 0.12347324408750693 0.10008547055756943 0.0036022935862007228 0.041790287002881808 0.002135069144101753 0.054304598418070865 0.11462406879571566
leaf_weight=10838.222929552197 2188.2275043092668 28303.531809784472 487.13749128207564 2153.2070246562362 81.239213496446609 1025.7354916185141 21.58420730009675 1359.5888090059161 1866.7013002596796 1309.534611877054 11653.091951515526 667.4981974363327 4650.9930364303291 355.30392247438431 1814.4728521406651 580.92349525913596 380.82279787957668 569.94319121912122 2523.2075974009931 1765.3145123645663 4102.84559468925 163.31649290397763 61.462976003065705 262.55294232070446 1217.4075478836894 1388.8553093858063 4378.564955111593 112.28492812812328 687.12549834698439 186.09260503202677 75.183092787861824 891.00679859519005 2821.6890242099762 101.14730567857623 578.3901153318584 804.2231557816267 15.468650840222837 83.375594396144152 623.72016507387161 1003.1558214351535 178.56684179231524 231.13683530315757 242.00120361894369 8.1406127214431745 244.4607440829277 7245.214497320354 112.73267162963748 240.04026790708303 221.51105090230703 688.41456684470177 242.75992779806256 1285.7861206233501 182.97421786934137 97.780068054795265 150.90815855190158 192.70553929358721 282.87877734750509 188.56238932907581 342.51510328426957 797.91564285755157 559.08129191026092 1095.0268518701196
leaf_count=7893 34199 13879 5340 4328 308 2181 342 9383 4714 2208 14092 9913 15241 769 13206 6663 2731 2185 18038 5625 31766 1270 1245 574 14532 15346 17548 949 2588 2252 516 1157 16634 857 9258 8717 33 552 2964 9654 2026 1576 1557 80 2258 11754 275 3390 1309 4555 1694 4886 1555 876 313 327 607 1245 2725 14436 3646 5140
internal_value=0.0967711 0.101958 0.0939005 0.0870582 0.074808 0.0614925 0.0536843 0.0623452 0.0782846 0.0753507 0.10574 0.0272775 0.0727054 0.0539945 0.0780655 0.085698 0.0710522 0.0766381 0.0585925 0.119152 0.0470383 0.0893677 0.121441 0.0437177 0.0482908 0.0590899 0.0920719 0.0799307 0.0550963 0.060113 0.10024 0.138287 0.0634654 0.0793206 0.0204803 0.0797527 0.037059 0.128382 0.0910702 0.078049 0.122825 0.153842 0.20993 0.293643 0.038794 0.111537 0.0591917 0.0509107 0.0484603 0.0933553 0.0668269 0.100874 0.128872 0.0845083 0.071004 0.0435063 0.0361589 0.0859256 0.0995244 0.0342888 0.108416 0.0942364
internal_weight=108985 95015.3 64696.5 46613 28152.6 13969.9 11658.4 9470.17 26213 24346.3 18460.5 1939.54 23036.8 5129.78 17907 12508 6202.43 5821.61 3255.04 30318.9 4691.1 6807.37 28365 4609.86 6391.5 4595.7 6644.06 4490.85 1272.04 5398.99 6305.6 966.19 5212.89 2922.84 1795.8 2385.32 2210.38 438.68 3078.67 2271.98 673.289 494.722 263.585 23.6093 4347.31 18083.4 1598.69 1485.96 1025.73 5339.41 1245.92 2311.52 806.694 784.906 2674.12 2290.06 2097.35 1953.88 2566.57 2186.77 2224.05 1654.11
internal_count=377880 238487 216493 196846 158659 139393 132326 98127 139942 135228 38187 18717 133020 36227 96793 62910 41441 38710 25014 21994 34906 24095 15124 34598 73094 49304 22825 18497 8804 33883 21469 1673 31631 17491 23790 19409 29895 1321 25033 20514 5501 3475 1899 113 34024 19647 15013 14738 10026 19796 11348 7067 4519 3464 18351 14140 13813 6870 13696 29782 10971 8786
cat_boundaries=0 1 3 5 6 8 9 11 13 14 15 17 19 20 22 23 25 27 28
cat_threshold=4 3792175104 134217728 8455424 8388624 2 2720104455 160 2 1610616864 1032 3800633622 4194353 18 2 76025352 146802769 65536 16 1 612433926 144 1 1619066880 4325392 2155938306 4194305 1
is_linear=0
shrinkage=0.05


Tree=9
num_leaves=63
num_cat=16
split_feature=310 31 8 100 20 154 346 27 20 13 13 0 47 1 47 6 13 393 27 7 13 313 38 38 14 13 6 13 364 13 337 9 1 13 59 46 0 183 27 87 32 9 36 30 99 182 9 16 366 32 0 245 38 393 14 113 337 182 20 28 38 9
split_gain=7647.47 4951.93 3198.94 1986.91 1642.98 1717.29 1461.74 1449.87 1295.31 1195.34 1120.36 1054.16 977.318 948.188 1048.05 872.434 988.83 808.374 738.147 735.431 688.5 650.049 639.907 630.421 607.8 607.498 600.827 598.44 588.624 538.379 722.457 530.678 529.859 528.183 894.459 527.587 524.707 532.052 519.963 509.478 594.435 510.703 500.001 483.642 480.201 472.914 563.615 504.701 465.491 464.629 464.289 472.613 456.829 472.547 772.486 442.157 437.753 571.112 422.942 602.994 472.44 415.213
threshold=1.5000000000000002 8.5000000000000018 0 1.0000000180025095e-35 1.5000000000000002 1.0000000180025095e-35 1.0000000180025095e-35 8.5000000000000018 1.5000000000000002 1 2 2386228.0000000005 3 105.06550000000001 4 5 6 0.94999999999999407 22.500000000000004 194.50000000000003 7 2.5000000000000004 24.500000000000004 72.500000000000014 8 9 10 11 268.19000244140631 12 6.5000000000000009 123.50000000000001 107.95450000000001 13 1.5000000000000002 14 2858624.0000000005 117.10739898681642 8.5000000000000018 1.0000000180025095e-35 391.50000000000006 435.50000000000006 142.14583587646487 220.50000000000003 1.5000000000000002 139.97499847412112 123.50000000000001 11.500000000000002 511.39999389648443 178.50000000000003 1687527.5000000002 1.5000000000000002 320.50000000000006 0.063000000000001513 15 1.0000000180025095e-35 7.5000000000000009 445.18499755859381 2.5000000000000004 1.5000000000000002 282.50000000000006 324.50000000000006
decision_type=2 2 9 2 2 2 2 2 2 9 9 2 1 2 1 9 9 2 2 2 9 2 2 2 9 9 9 9 2 9 2 2 2 9 2 1 2 2 2 2 2 2 2 2 2 2 2 2 2 2 2 2 2 2 9 2 2 2 2 2 2 2
left_child=1 2 8 4 5 9 17 58 10 13 11 12 -1 14 -4 16 39 27 26 -5 -10 43 -22 -17 50 36 -13 35 -21 -7 -31 -25 -15 34 45 -3 37 -11 -34 41 56 61 49 -16 -18 -19 -47 -48 -30 -28 -14 -52 53 54 -38 -36 -41 -58 59 -6 -61 -9
right_child=-2 6 3 19 7 29 -8 15 20 25 -12 18 24 32 21 23 44 33 -20 28 22 -23 -24 31 -26 -27 42 -29 48 30 -32 -33 38 -35 55 -37 52 -39 -40 40 -42 -43 -44 -45 -46 46 47 -49 -50 -51 51 -53 -54 -55 -56 -57 57 -59 -60 60 -62 -63
leaf_value=0.095976788545290334 0.11262125377116637 0.03852139060190634 0.087107652107821842 0.0048145096846947044 0.10806989537088561 0.11397644902384135 0.0940768037989127 0.08997573947492081 0.11748941983726612 0.010293332284026128 0.023569106817135834 0.13204829356052222 0.074618797814047996 0.15434701820085933 0.049696385132722849 0.071636436842605067 0.0034581553589596963 0.020929809388020904 -0.0093490590486243041 0.048612026558041442 0.093082403289344376 0.13822835137046005 0.00096629106020322715 0.13825140135992672 -0.018454937041487481 -0.046857280054652416 0.099735794645570364 -0.039512171970236092 0.13412743133056146 0.08540086136846145 -0.064572409925839777 -0.0092363332845488873 0.091414590683937272 0.0029563121711132755 0.094926445524474545 0.066594060124198176 0.1457414788670503 0.11858264097195237 0.019426444099212573 0.092342936735297559 -0.061191714534808907 -0.0037105395124983538 0.054141144562636405 -0.026017959271401166 0.14228113527177697 0.41083526362505784 0.018633671632958086 0.21449018162857497 -0.064196507586247564 0.048317407118618046 0.00045819405239717252 0.16944056957142206 -0.016575513176759073 0.036542114426266273 0.062622529733207158 0.42382979535384352 -0.063569748299760351 0.072648155586006749 0.11935106250730652 0.075884247122872353 -0.034690192296668379 0.14094018921496396
leaf_weight=1748.7948810793459 25438.809040915221 3012.7896837219596 3121.6643370948732 896.0746924392879 3131.0804352536798 2752.3903677649796 1632.9198595955968 653.97267767041922 9193.9942855425179 1110.3881466425955 621.03376748040318 1436.7868380732834 1102.0590451620519 315.28552046045661 4671.9723879918456 801.22503566369414 476.95880765467882 645.1069576703012 157.55906333960593 3095.0428121723235 975.23316021636128 200.07232296466827 233.71405620127916 67.916728224605322 327.86344903707504 159.90635989978909 14556.032734360546 171.79985076189041 327.14027811586857 2645.0548749528825 82.815824832767248 598.0210096091032 4537.506208140403 1730.8780116066337 18.332566376775503 3765.4148322492838 315.4845373891294 126.33389873430133 265.51394338160753 2468.5466753430665 71.661677058786154 86.13052761182189 673.32124358043075 220.88707453384995 71.651139192283154 14.811516404151915 94.222110878676176 50.533687204122543 32.528982844203711 453.0224226154387 445.32380827888846 45.615781106054783 198.4100297652185 1407.1384983807802 3036.3482837155461 23.08635500445962 106.32956277951598 278.45868591591716 4054.1142621450126 1019.1248255074024 106.71516178548336 1027.6482074223459
leaf_count=3630 11245 26945 10665 12190 5604 3577 3838 1536 9145 9467 4397 1730 6872 865 30743 2315 2655 9829 1777 32639 1797 129 1539 172 4333 1743 30588 2068 667 5020 545 4141 15166 30986 190 25808 669 284 1660 7504 570 446 3067 2212 103 69 1255 223 220 2113 4201 20 1848 8315 15613 142 736 939 3970 3536 841 768
internal_value=0.0884857 0.0814823 0.0860208 0.0772571 0.0807493 0.0729392 0.0503679 0.0938361 0.0981746 0.0660481 0.0912155 0.0931654 0.0688718 0.0746087 0.0641396 0.076545 0.0861189 0.0428763 0.0983794 0.0451782 0.112696 0.0497927 0.074657 0.0414734 0.0434688 0.0478923 0.0993709 0.051745 0.0556476 0.0976942 0.0805525 0.00580544 0.0915568 0.0189576 0.0510536 0.0540365 0.0504099 0.0213553 0.087435 0.0936467 0.0810387 0.115038 0.0962315 0.0462783 0.0212026 0.0399935 0.117065 0.0870064 0.116191 0.0981838 0.0562493 0.0161592 0.0577599 0.060859 0.0710676 0.278253 0.0846108 0.0350067 0.107793 0.0967857 0.0654032 0.12112
internal_weight=113107 87667.8 76507.9 44537.5 40186.7 25167.2 11159.9 15019.6 31970.4 19686.9 21567.4 20946.4 3669.66 13332.9 8214.6 6708.52 5241.36 9526.98 17276.7 4350.79 10402.9 5092.93 1208.95 1467.16 1920.86 6354.01 17119.2 6950 3454.71 5480.26 2727.87 665.938 5118.31 2576.97 846.093 6778.2 6194.1 1236.72 4803.02 4692.75 2925 1767.75 15682.4 4892.86 548.61 804.674 159.567 144.756 359.669 15009.1 1593 490.94 4957.38 4758.97 3351.83 41.4189 2853.33 384.788 8311.03 4256.92 1125.84 1681.62
internal_count=377880 366635 265282 190073 144357 108521 101353 35836 75209 99379 62728 58331 19056 61440 43749 21885 15257 97515 39275 45716 12481 33084 3336 6628 15426 37939 37498 54821 33526 9142 5565 4313 17691 42694 11708 52753 36196 9751 16826 12499 9749 2750 35768 32955 2758 11376 1547 1478 887 32701 11093 4221 26445 24597 16282 332 9179 1675 13951 9981 4377 2304
cat_boundaries=0 1 3 5 6 7 8 10 12 14 16 17 19 21 23 24 25
cat_threshold=2 2768344865 134223088 4136174390 4202672 5 6 16 2155946512 138412161 2693333016 4325393 2684945408 8388624 1116209158 4327433 2 3802788382 12582953 2181038599 1 3254779916 134217728 2 537396228
is_linear=0
shrinkage=0.05


Tree=10
num_leaves=63
num_cat=12
split_feature=310 100 369 22 28 30 29 392 7 13 20 13 183 3 3 38 3 8 13 23 13 3 3 9 2 392 8 13 4 9 38 11 36 32 48 0 13 15 32 28 13 127 32 5 13 43 0 4 4 20 38 4 122 142 9 106 9 29 43 9 39 3
split_gain=7265.92 4613.32 2574.41 2376.04 1865.49 2051.72 1355.44 1110.16 1134.84 1298.7 1177.75 1290.04 977.801 918.075 1017.29 1290.46 867.099 793.85 982.359 725.026 703.863 687.523 711.929 716.014 659.323 794.863 631.929 888.325 830.212 722.3 789.951 797.463 625.68 623.672 833.157 703.857 622.913 591.963 745.862 615.229 570.468 565.502 549.763 543.76 534.591 556.768 528.628 521.232 507.936 1087.29 685.108 570.968 568.423 579.974 721.702 559.419 540.087 503.079 497.577 593.221 577.312 495.656
threshold=1.5000000000000002 1.0000000180025095e-35 171.17584991455081 1.5000000000000002 1.0000000180025095e-35 6.5000000000000009 314.50000000000006 5.4255003752694959 223.50000000000003 0 1.5000000000000002 1 138.90999603271487 14649.500000000002 7206.0000000000009 349.50000000000006 7829.0000000000009 2 3 7.5000000000000009 4 9300.5000000000018 10057.500000000002 324.50000000000006 5 5.0174453723238033 6 7 512.50000000000011 203.50000000000003 334.50000000000006 4.5000000000000009 330.77082824707037 142.50000000000003 8 2776283.5000000005 9 4.5000000000000009 38.500000000000007 25.500000000000004 10 1.0000000180025095e-35 183.50000000000003 149.50000000000003 11 123.50000000000001 12552023.500000002 480.50000000000006 167.50000000000003 36.500000000000007 45.500000000000007 220.50000000000003 1.0000000180025095e-35 1.0000000180025095e-35 157.50000000000003 2.5000000000000004 123.50000000000001 76.500000000000014 301.50000000000006 435.50000000000006 452.50000000000006 4516.5000000000009
decision_type=2 2 2 2 2 2 2 2 2 9 2 9 2 2 2 2 2 9 9 2 9 2 2 2 1 2 9 9 2 2 2 2 2 2 1 2 9 2 2 2 9 2 2 2 9 2 2 2 2 2 2 2 2 2 2 2 2 2 2 2 2 2
left_child=1 2 3 4 24 43 37 8 9 -7 11 19 26 14 20 16 -16 18 -11 32 -12 -18 -23 -24 -1 -26 27 42 29 44 -31 41 33 34 -10 -36 -27 38 -5 -39 -33 -32 -3 -6 45 -28 -40 -46 49 50 -19 56 53 55 -55 -53 -50 -15 -43 -60 61 -61
right_child=-2 12 -4 6 5 7 -8 -9 10 17 13 -13 -14 57 15 -17 21 48 -20 -21 -22 22 23 -25 25 36 28 -29 -30 30 31 40 -34 -35 35 -37 -38 39 46 -41 -42 58 -44 -45 47 -47 -48 -49 51 -51 -52 52 -54 54 -56 -57 -58 -59 59 60 -62 -63
leaf_value=0.097824658660388017 0.10518218761011716 0.095432341357021014 0.096294501679426769 0.092220595722065896 -0.044513427904227076 0.17105810526044504 -0.010071623842724477 0.081922619810285757 0.03792809388791768 0.075364349848965645 0.072695326494322171 -0.037307956645690789 0.090949131908668449 0.066861902108769022 0.16454499998752925 0.037293642277232135 0.030062228645828967 0.072996954166279437 0.020969030150743716 0.58708752309457279 -0.0046871322441054677 0.14569406754701339 0.045707164000738806 0.11579658153838586 0.048951583276707539 0.10123790908832986 0.23603057214507187 -0.016809363920225365 -0.016486583806325703 0.032019512435193652 0.08679825965393248 0.072836761845129758 -0.039615565669850042 0.026349403008815303 0.043340479218061445 0.078152954961643359 0.034476527350240815 0.11132846951029823 0.018885564018256834 0.063342489803483851 -0.040252029380813091 0.0060091547281681985 0.0083509851843606119 0.089437593453927211 -0.03223129385812426 -0.053740633235492823 0.10536476127459747 0.07335971547244656 0.11220833892826068 0.38938661374163414 -0.057169206890088309 0.031394887472624547 -0.04313941454360988 0.50193304986422405 0.025431592794632685 0.35608180874654205 -0.023280433150890796 -0.0063573878379313067 0.18782854611506353 0.86278323041796756 -0.053673947264296966 0.39845690634604797
leaf_weight=6749.6608006171882 26082.662269622087 1105.9914715774357 16929.008308786899 4629.7049223147333 76.532097298651934 180.47982903197408 306.62849781103432 4665.0526443533599 2755.4843176826835 2403.6642734333873 1127.2904094010592 375.35987397283316 874.3744857981801 528.16140219196677 660.49430391564965 671.99217102304101 305.87519764527678 645.99179518595338 1305.5437787510455 6.4341708160936824 403.11520421877503 874.05448630452156 586.48626827448606 962.18160645291209 2033.2927657328546 2227.7523848488927 46.994957983493805 286.74846735969186 900.14729343354702 3374.7224991321564 172.15911292657256 614.97398643568158 168.10424578562379 1418.1677468344569 1908.8823670446873 6065.8453937284648 456.15771596878767 6145.9684899225831 651.62141761556268 749.40251808613539 132.19026120379567 22.675072811543941 216.76732394844294 7536.093310687691 739.85434494912624 25.610848907381296 242.46664621308446 138.79981254786253 79.673502985388041 24.743255250155926 119.8425004594028 3272.4712469950318 251.87433103844523 14.840308986604215 17.105885792523623 13.32023750990629 957.37940069660544 422.07663705199957 84.355063289403915 7.5287735536694553 5.3360314369201651 24.291187960654497
leaf_count=6206 11279 7945 20612 7985 500 459 2466 17931 20213 9543 6050 4407 2790 2159 1480 4621 1638 3439 9259 19 2799 1827 3159 2639 5310 2907 270 3736 13212 43286 2009 7426 2109 12144 16953 31922 1388 2040 3057 1136 2271 315 2863 14786 11431 432 595 1574 414 66 1320 23559 3943 20 184 14 9187 3674 644 10 92 83
internal_value=0.0819252 0.0752371 0.0789273 0.0744039 0.069687 0.0646797 0.0937788 0.0593103 0.0556125 0.0412584 0.0625411 0.053662 0.0407785 0.0797765 0.0874982 0.10059 0.113141 0.0384558 0.0563265 0.0564174 0.0527568 0.100698 0.109616 0.0892535 0.0875053 0.0723789 0.035225 0.0632102 0.0279187 0.0353871 0.0438613 0.0814375 0.056186 0.0575117 0.0616303 0.06982 0.0903968 0.0963429 0.0841465 0.106113 0.0532649 0.147977 0.0805529 0.0880909 -0.00415054 0.117618 0.0423378 -0.0153762 0.0260929 0.0631675 0.0526277 0.019787 0.0292749 0.0347724 0.246786 0.0327111 -0.0128713 0.0343394 0.221026 0.26115 0.42761 0.508319
internal_weight=116782 90699.8 81926.3 64997.3 52271.5 40804.6 12725.8 33192 28526.9 9286.93 19240 12698.3 8773.52 6541.73 5591.49 4061.08 3389.09 9106.45 3709.21 12322.9 1530.41 2728.6 2422.72 1548.67 11466.9 4717.2 7899.15 1609.51 6289.64 5389.49 4438.23 1063.51 12316.5 12148.4 10730.2 7974.73 2683.91 12419.2 5523.79 6895.37 747.164 316.345 1322.76 7612.63 951.26 72.6058 894.088 878.654 5397.24 790.578 765.834 4606.66 3569.61 3317.74 31.9462 3285.79 1037.05 950.238 144.186 121.511 37.156 31.82
internal_count=377807 366528 266139 245527 228248 212437 17279 197151 179220 61407 117813 87767 100389 30046 24213 15364 10743 60948 18802 83360 8849 9263 7625 5798 15811 9605 97599 14544 83055 69843 56136 12850 83341 81232 69088 48875 4295 14813 11637 3176 9697 3153 10808 15286 13707 702 3652 13005 42146 4825 4759 37321 27720 23777 204 23573 9601 5833 1144 829 185 93
cat_boundaries=0 2 4 5 7 9 10 11 13 14 16 18 19
cat_threshold=570429696 1024 2760484646 4199608 2 8978453 8388656 2147581970 17 3 2 2181628416 4198416 1 2692825600 138412176 33619976 138412032 1073741828
is_linear=0
shrinkage=0.05


Tree=11
num_leaves=63
num_cat=15
split_feature=310 100 8 346 30 13 25 27 359 28 13 24 30 1 183 13 13 13 0 31 0 0 13 335 5 179 0 82 8 13 4 9 38 30 49 325 49 146 105 87 1 11 27 9 1 71 9 13 49 27 13 38 38 38 13 4 11 89 4 9 30 27
split_gain=7102.37 4055.56 2342.15 1771.08 1420.12 1073.01 894.293 1075.26 965.624 930.919 840.409 874.601 917.03 877.286 826.183 810.162 750.298 710.082 683.729 595.984 594.015 591.391 578.264 557.215 540.665 792.974 531.216 586.608 522.65 748.503 718.718 612.774 620.839 537.064 541.014 521.621 514.628 749.435 511.784 510.908 508.977 506.291 501.834 491.091 490.481 489.665 486.962 850.612 601.206 573.497 470.214 462.625 454.553 448.188 444.145 460.997 441.263 447.476 487.382 758.876 441.335 475.956
threshold=1.5000000000000002 1.0000000180025095e-35 0 1.0000000180025095e-35 199.50000000000003 1 2.5000000000000004 26.500000000000004 335.14999389648443 1.0000000180025095e-35 2 1.5000000000000002 280.50000000000006 47.952000000000005 138.90999603271487 3 4 5 8954477.5000000019 15.500000000000002 2386228.0000000005 927913.50000000012 6 4.5000000000000009 184.50000000000003 37.522600173950202 3530011.0000000005 1.5000000000000002 7 8 512.50000000000011 203.50000000000003 352.50000000000006 25.500000000000004 9 24.976200103759769 10 1.0000000180025095e-35 1.0000000180025095e-35 1.5000000000000002 107.01000000000001 4.5000000000000009 7.5000000000000009 511.50000000000006 256.98500000000007 1.5000000000000002 268.50000000000006 11 12 9.5000000000000018 13 98.500000000000014 308.50000000000006 67.500000000000014 14 480.50000000000006 4.5000000000000009 1.5000000000000002 511.50000000000006 269.50000000000006 76.500000000000014 13.500000000000002
decision_type=2 2 9 2 2 9 2 2 2 2 9 2 2 2 2 9 9 9 2 2 2 2 9 2 2 2 2 2 9 9 2 2 2 2 1 2 1 2 2 2 2 2 2 2 2 2 2 9 1 2 9 2 2 2 9 2 2 2 2 2 2 2
left_child=1 2 4 5 6 10 7 8 9 -1 -4 13 -13 24 28 20 18 41 -6 26 21 -11 23 46 25 43 36 -28 29 33 31 54 -33 -3 40 -18 42 -38 -21 -25 -35 -7 53 -12 -40 -43 47 48 -5 -49 56 -50 -51 -15 -30 -56 -34 58 60 -60 -58 -62
right_child=-2 14 3 22 16 17 -8 -9 -10 15 11 12 -14 19 -16 -17 35 -19 -20 38 -22 -23 -24 39 -26 -27 27 -29 30 -31 -32 32 50 34 -36 -37 37 -39 44 -41 -42 45 -44 -45 -46 -47 -48 49 51 52 -52 -53 -54 -55 55 -57 57 -59 59 -61 61 -63
leaf_value=0.090337679431944012 0.098766347451610809 0.13723367004097206 0.14992956568793359 0.018410717125280526 0.10633216037019946 -0.019155659571982026 0.099715929561832575 -0.061871299230475685 0.098101774468621908 0.082624325140289223 0.011201428856925174 0.090555066739430423 -0.059128373130691816 0.07109214582055734 0.082631357383676649 0.010407773668902729 -0.033457243979060761 -0.045102553303370117 -0.05971138971096053 0.068361680530363289 0.075917691212777264 0.031111404162152315 0.037498170935343536 0.097238382093583708 0.065891619818258668 0.060017455029368387 0.071237875477208279 0.15682161782385204 0.10164941286763687 -0.043140675397257994 -0.015884384372608442 0.029914118532754413 0.13189753322140427 -0.022088543628503158 0.026229438870926922 0.19872701586852218 0.015022296860968938 0.098410047575287304 0.0086466984376956171 -0.078662810859307847 0.11083285054684083 0.043806394611383449 0.012977111474441489 0.14175754856154169 0.083423637599572928 0.14376288684449873 0.082569701633056325 0.053051755100645637 0.061692682987747216 -0.042929554942263158 -0.047073518054603691 0.11801146278432556 0.057867580445052851 0.14982608793065219 -0.031482826339348596 0.065646314465455491 0.12545712314222346 0.17560757948355735 0.6803848277404686 -0.053981299909452753 0.082947778729968946 -0.019291088250230667
leaf_weight=6893.8089248016477 26379.635562654585 241.05235624685884 275.80167363584042 283.42870290204883 309.1831500120461 313.63077953457832 7522.9058354645967 132.58895614370704 6200.2613742910326 842.78464986756444 2485.2521584071219 3286.7084975391626 105.61159481480718 999.7904750443995 913.19917351007462 608.65474854782224 466.65111474320292 237.20225039869547 77.548558741807938 1039.5809913352132 9849.5799473114312 1644.0230667702854 860.81723248958588 4635.2506242394447 1669.320925578475 1581.7266956269741 12000.661873400211 203.61613827571273 80.283758860081434 163.58210963383317 887.87840756773949 3516.2051698416471 311.79737599566579 84.244542427361012 698.58696142211556 25.512124951928854 1389.1434706449509 334.28370871022344 1188.6320635043085 41.651436969637871 496.28161849826574 4762.1961878053844 298.25618512928486 74.178979944437742 268.90513571351767 125.75850626081228 7504.2401814348996 1478.2906483560801 573.30458918213844 331.20802131667733 73.653687607496977 1001.835666552186 168.8776594735682 220.63728266209364 720.07932769879699 147.12242225185037 120.36351629719138 75.145595163106918 7.5179212950170022 6.6118530593812466 180.75858483836055 307.46317467838526
leaf_count=6960 11279 705 753 1108 1044 2903 5747 1062 6066 3700 22500 4193 934 4704 2790 4633 5095 2574 693 8400 27932 11386 2438 3985 4745 9121 49996 445 702 2569 13212 43935 2607 1212 6918 16 10388 633 11151 185 3140 26185 2101 372 1469 288 11990 3406 1244 1751 1346 664 441 738 11431 1574 1027 263 27 107 2311 4513
internal_value=0.0758581 0.0693842 0.0727953 0.0657681 0.082862 0.0590194 0.0845226 0.0801554 0.0808786 0.0754958 0.0630609 0.0621235 0.085895 0.0587548 0.0375415 0.0675918 0.020142 0.0384557 0.0711957 0.0642227 0.0703477 0.0485692 0.0789459 0.0810992 0.0418691 0.0321854 0.0678866 0.0726658 0.0324697 0.0573043 0.0258423 0.0325678 0.0401104 0.0683243 0.0558723 -0.020995 0.0498965 0.0311966 0.0415592 0.0956718 0.0915436 0.0423453 0.0711175 0.0149853 0.0224425 0.0463781 0.0751612 0.0606719 0.0849928 0.0372062 0.0732055 0.0975131 -0.00889062 0.0853262 -0.00404734 -0.0148336 0.0816375 0.0603516 0.0464431 0.336747 0.039703 0.0185617
internal_weight=119725 93345.1 84313.3 49739.8 34573.5 32860.9 33694.6 26171.7 26039.1 19838.9 27422.1 27146.3 3392.32 23754 9031.83 12945 878.895 5438.79 386.732 17943.5 12336.4 2486.81 16878.9 16018.1 5810.48 4141.16 15446.4 12204.3 8118.63 1683.75 6434.88 5547 4599.52 1520.17 1279.11 492.163 3242.11 1723.43 2497.12 4676.9 580.526 5201.59 1518.68 2559.43 1457.54 4887.95 11341.2 3836.95 1858.57 1978.38 1083.31 1575.14 500.086 1220.43 947.486 867.202 1009.66 697.861 622.715 14.1298 608.585 488.222
internal_count=377807 366528 266139 191805 74334 164593 67486 61739 60677 54611 132643 131890 5127 126763 100389 47651 6848 31950 1737 90025 43018 15086 27212 24774 36738 31993 69005 50441 97599 14544 83055 69843 56136 11975 11270 5111 18564 11021 21020 4170 4352 29376 7543 22872 12620 26473 20604 8614 3016 5598 12201 1908 2192 5442 13707 13005 10855 8248 7985 134 7851 6824
cat_boundaries=0 1 3 5 7 9 11 13 14 16 17 18 19 20 22 23
cat_threshold=18 2728474401 138412217 536883489 136 3867770919 4334640 590096 142606336 84445206 136192 2720596501 4194305 2 2181628420 4198416 1 1 2181038084 2 42533388 138412032 1073741828
is_linear=0
shrinkage=0.05


Tree=12
num_leaves=63
num_cat=11
split_feature=310 122 20 27 180 43 183 14 8 13 19 20 13 27 14 139 366 43 19 27 13 29 188 9 19 15 27 33 1 49 51 27 106 369 43 78 3 3 182 27 30 72 2 1 13 335 11 9 16 32 25 1 6 105 3 15 376 0 30 32 167 19
split_gain=6986.28 3688.44 2285.11 1690.36 2029.74 1652.35 1168.7 957.86 952.975 892.02 818.783 1095.87 763.991 1257.6 742.679 601.449 594.547 593.795 592.124 584.474 577.069 564.844 556.071 647.113 768.898 1024.93 798.225 548.093 568.764 593.684 561.883 542.42 533.245 525.556 593.958 578.769 525.416 680.24 525.143 523.29 531.574 521.046 512.597 616.53 531.273 504.991 494.675 494.428 743.885 482.851 587.188 586.844 479.718 479.329 438.483 436.85 430.942 658.863 429.407 498.066 591.067 434.27
threshold=1.5000000000000002 1.0000000180025095e-35 1.5000000000000002 1.0000000180025095e-35 39.05060005187989 54.500000000000007 104.23500061035158 0 1 2 1.5000000000000002 1.0000000180025095e-35 3 11.500000000000002 4 1.5000000000000002 664.25000000000011 18.500000000000004 1.0000000180025095e-35 34.500000000000007 5 90.500000000000014 33.994449615478523 327.50000000000006 4.5000000000000009 10.500000000000002 51.500000000000007 12.500000000000002 47.952000000000005 6 7 81.500000000000014 1.0000000180025095e-35 428.25000000000006 332.50000000000006 1.0000000180025095e-35 10726.500000000002 9480.5000000000018 554.41000366210949 11.500000000000002 370.50000000000006 1.0000000180025095e-35 8 160.52500000000003 9 1.5000000000000002 4.5000000000000009 338.00000000000006 3.5000000000000004 281.50000000000006 1.5000000000000002 48.955000000000005 10 1.0000000180025095e-35 13626.500000000002 2.5000000000000004 1.5000000000000002 3020690.5000000005 167.50000000000003 333.50000000000006 1.5000000000000002 329.50000000000006
decision_type=2 2 2 2 2 2 2 9 9 9 2 2 9 2 9 2 2 2 2 2 9 2 2 2 2 2 2 2 2 1 1 2 2 2 2 2 2 2 2 2 2 2 1 2 9 2 2 2 2 2 2 2 9 2 2 2 2 2 2 2 2 2
left_child=1 2 3 42 7 19 27 8 21 16 14 -12 -6 -14 -10 18 22 -8 20 -4 -16 -5 23 24 25 26 33 28 -3 32 -31 -24 -30 34 35 -7 37 -19 -11 -37 -41 58 -1 -44 -45 -32 -36 -25 -49 50 51 -22 -15 -48 -17 -23 -2 -58 59 60 -29 -60
right_child=56 6 5 4 12 9 17 -9 10 38 11 -13 13 52 15 54 -18 36 -20 -21 49 55 31 47 -26 -27 -28 41 29 30 45 -33 -34 -35 46 39 -38 -39 -40 40 -42 -43 43 44 -46 -47 53 48 -50 -51 -52 -53 -54 -55 -56 -57 57 -59 61 -61 -62 -63
leaf_value=0.085641208416461681 0.094907199754900251 0.011540815340034549 0.090590756536555794 0.063942226436675603 0.085540318863535733 0.16404148820540201 0.10515433868692346 -0.043900594542355766 -0.031554827882775742 0.038114140584525544 0.35864587921852664 -0.015735770703131587 0.06718017881618614 -0.027964521647719173 0.14186344304297055 0.10208940150101634 -0.015317858742030272 0.029341310870824418 -0.044091418173704128 0.052090496083024129 0.021037729980233517 -0.014460620515937715 0.097958720045804193 0.10957855312066718 -0.051933010441148397 0.10012794981015061 -0.060979148315940229 0.0061667685406797861 -0.0072916701304222807 0.015639848269742695 0.076983850992663527 -0.032793666933426981 0.042247493256099528 0.087251486017837554 0.11396621855475791 0.039838596186554581 -0.010645935345401959 0.12772616425716932 -0.054390842706461495 -0.028508028282446831 0.13278561029096667 0.0058869783920135225 0.04396570110702739 0.08594993853310319 0.022468661378208785 0.017951659264002408 0.079246063339879519 0.022529902339935418 0.095300971330200435 0.0087561451276162664 0.067062662390531297 0.046260068540688905 0.10344809876086745 0.017111875818054862 0.0027641009307652932 0.073490362242759552 0.0018080879285326948 0.083471654749364591 -0.0082006310127569985 0.21634989803302648 0.36464731687683472 0.83186472879379147
leaf_weight=7792.1493184119463 24880.450729291886 1494.7540622092783 17308.687978398055 9993.5215261690319 6180.7384737171233 72.107314176857471 878.23415799811482 273.52040952816606 346.25098029524088 1184.273166410625 46.332181096076965 33.810424346476793 6403.2910299282521 498.94048589468002 133.5915305390954 644.0098182708025 202.60742929577827 414.57809861004353 207.2575107626617 1045.3073503337801 3435.9807185009122 418.7539845854044 2179.2687559723854 1203.2099135890603 159.94712308421731 1210.8423094525933 160.87095272541046 91.848203931003809 761.4650421962142 608.98103322833776 2500.7268140278757 82.314867485314608 1895.2168693579733 869.88216845691204 404.53273013606668 1175.9625581502914 271.05405420437455 304.89940709248185 176.25570182129741 623.34767810627818 55.641942206770182 2507.0476263314486 2139.4084318131208 2868.4734276086092 401.42342782765627 423.65675242990255 667.19242701306939 583.50919166579843 882.00414560362697 1136.3590862452984 2078.9761639051139 7013.5576894059777 70.58124191313982 580.41616243869066 134.28391151875257 213.00003041699529 302.20605150610209 1351.7950729653239 121.78145294636488 80.510128833353519 13.144157361239193 1.5580983161926258
leaf_count=6894 9103 21274 18513 35201 10869 118 1424 3821 4040 5679 56 355 14414 3325 421 1896 748 2296 2148 1997 24589 3419 3006 1964 1327 903 1297 1397 8540 6253 20343 549 16837 952 1354 5112 1879 411 1366 3619 147 38855 5131 3349 1225 2929 2438 3179 1858 9187 6159 44132 65 3132 715 805 916 1260 2035 516 64 1
internal_value=0.0705642 0.0642677 0.0680512 0.0617028 0.0564987 0.078855 0.0387906 0.0484296 0.0494049 0.0648137 0.04128 0.200702 0.0725154 0.0607603 0.0404628 0.0421423 0.0694868 0.0752221 0.0397935 0.0883981 0.0410535 0.0609863 0.0711253 0.0653534 0.0562178 0.0591896 0.0484368 0.032307 0.0392218 0.0459061 0.059333 0.0931997 0.0280485 0.0523931 0.0439212 0.0250617 0.0486832 0.0710347 0.0259395 0.0196591 -0.0152903 0.0134359 0.0771805 0.0647148 0.0784883 0.0684318 0.065919 0.0858269 0.0663264 0.0399349 0.0427947 0.0379665 -0.0103531 0.0503398 0.0849522 0.0151926 0.0932643 0.0685507 0.0747152 0.122789 0.0510455 0.00241157
internal_weight=122196 95661.8 83292.4 52464.2 39262.8 30828.2 12369.5 26109.2 25835.7 12474.2 15210.4 80.1426 13153.6 6972.81 15130.3 14784 11113.7 1868.77 14005.7 18354 13798.5 10625.3 10911.1 8649.47 5980.74 5820.8 4609.95 10500.7 7684.8 6190.05 3533.36 2261.58 2656.68 4449.08 3579.2 1927.06 990.532 719.478 1360.53 1854.95 678.99 2815.89 13201.5 5409.31 3269.9 2924.38 1652.14 2668.72 1465.51 13664.9 12528.5 10449.5 569.522 1247.61 778.294 631.754 26534.5 1654 308.842 185.502 104.992 123.34
internal_count=377807 366528 241474 182216 165617 59258 125054 136944 133123 38748 93698 411 28673 17804 93287 89247 31703 6010 86636 20510 84488 39425 30955 27400 20399 19072 18169 119044 76176 54902 29525 3555 25377 16872 15920 8996 4586 2707 7045 8878 3766 42868 16599 9705 4574 23272 6924 7001 5037 84067 74880 68721 3390 5570 2611 4224 11279 2176 4013 1977 1461 2036
cat_boundaries=0 2 3 5 7 9 11 12 13 14 16 17
cat_threshold=2793999367 25167920 2 2693374480 138412169 2717914885 1 6 16777216 536883489 1160 2 2 11 2684420612 138412177 20
is_linear=0
shrinkage=0.05


Tree=13
num_leaves=63
num_cat=9
split_feature=310 122 20 28 360 27 183 181 32 15 36 26 64 7 30 4 15 27 3 28 25 20 4 15 14 33 65 31 38 392 2 48 3 2 392 337 5 5 392 89 176 16 28 182 48 218 49 4 32 3 14 179 16 38 149 48 3 127 29 32 30 49
split_gain=6893.43 3320.69 2076.79 1666.96 1966.16 1448.24 1021.97 1004.62 975.727 864.354 798.958 773.223 854.903 748.108 655.166 639.273 1121.79 1034.69 819.143 822.365 711.203 646.196 635.155 628.505 603.182 565.235 553.552 551.408 527.911 516.544 650.532 700.266 510.709 506.05 612.998 504.743 481.787 483.427 480.659 484.503 483.135 469.631 452.583 439.591 442.874 439.211 494.149 512.386 436.025 508.908 431.819 429.312 426.1 422.25 418.951 413.564 482.333 432.944 497.896 411.126 521.528 403.049
threshold=1.5000000000000002 1.0000000180025095e-35 1.5000000000000002 1.0000000180025095e-35 400.08999633789068 3.5000000000000004 104.23500061035158 51.250000000000007 163.50000000000003 2.5000000000000004 40.770832061767585 15.500000000000002 1.5000000000000002 190.50000000000003 97.500000000000014 318.50000000000006 2.5000000000000004 11.500000000000002 7468.5000000000009 1.5000000000000002 1.5000000000000002 3.5000000000000004 555.50000000000011 13.500000000000002 0 11.500000000000002 1.5000000000000002 67.500000000000014 16.500000000000004 4.7960797181581958 1 2 7829.0000000000009 3 5.0170148988662477 6.5000000000000009 189.50000000000003 149.50000000000003 3.8908402253256194 1.5000000000000002 1.5000000000000002 1.5000000000000002 24.500000000000004 57.954999923706062 4 73.000000000000014 5 536.50000000000011 214.50000000000003 14649.500000000002 6 916.25000000000011 3.5000000000000004 298.50000000000006 15.500000000000002 7 7322.5000000000009 1.5000000000000002 20.500000000000004 30.500000000000004 115.50000000000001 8
decision_type=2 2 2 2 2 2 2 2 2 2 2 2 2 2 2 2 2 2 2 2 2 2 2 2 9 2 2 2 2 2 1 1 2 1 2 2 2 2 2 2 2 2 2 2 1 2 1 2 2 2 9 2 2 2 2 1 2 2 2 2 2 1
left_child=1 2 3 33 7 14 13 8 9 10 24 12 15 -3 -4 16 20 21 19 -17 41 -18 32 -19 26 27 29 38 -11 30 -5 -32 51 -1 -35 53 37 -33 39 -15 -40 -7 -13 44 -30 46 55 -48 59 -50 -12 -20 -10 -21 -6 56 -39 58 -57 -34 -61 -42
right_child=-2 6 5 4 54 11 -8 -9 52 28 50 42 -14 25 -16 18 17 23 22 35 -22 -23 -24 -25 -26 -27 -28 -29 43 -31 31 36 48 34 -36 -37 -38 45 40 -41 61 -43 -44 -45 -46 -47 47 -49 49 -51 -52 -53 -54 -55 -56 57 -58 -59 -60 60 -62 -63
